svm_type c_svc
kernel_type polynomial
degree 6
gamma 0.10000000000000001
coef0 0
nr_class 2
total_sv 1591
rho 1.3612163887904487
label 1 -1
nr_sv 795 796
SV
128 1:-1 2:1 3:-1 4:0.22973 5:0.226891 6:-0.761062 7:-0.52187 8:-0.656355 9:-0.628703 10:-0.584454 
128 1:1 2:-1 3:-1 4:0.0810811 5:0.0588235 6:-0.778761 7:-0.640517 8:-0.710155 9:-0.705069 10:-0.674141 
128 1:-1 2:-1 3:1 4:-0.243243 5:-0.243697 6:-0.849558 7:-0.795644 8:-0.873571 9:-0.897301 10:-0.773792 
128 1:1 2:-1 3:-1 4:-0.216216 5:-0.193277 6:-0.858407 7:-0.820436 8:-0.870881 9:-0.888084 10:-0.803687 
128 1:-1 2:1 3:-1 4:0.283784 5:0.210084 6:-0.761062 7:-0.460599 8:-0.573638 9:-0.448321 10:-0.604385 
128 1:-1 2:1 3:-1 4:0.0135135 5:0.00840336 6:-0.814159 7:-0.631309 8:-0.682582 9:-0.694536 10:-0.714001 
128 1:-1 2:1 3:-1 4:0.0135135 5:-0.0588235 6:-0.814159 7:-0.700372 8:-0.750504 9:-0.761685 10:-0.773792 
128 1:1 2:-1 3:-1 4:0.0675676 5:0.0588235 6:-0.787611 7:-0.590933 8:-0.607263 9:-0.403555 10:-0.723966 
128 1:-1 2:1 3:-1 4:0.0405405 5:0.0756303 6:-0.787611 7:-0.675226 8:-0.762609 9:-0.711652 10:-0.704036 
128 1:-1 2:1 3:-1 4:0.216216 5:0.243697 6:-0.716814 7:-0.409598 8:-0.524546 9:-0.439105 10:-0.514699 
128 1:-1 2:-1 3:1 4:0.202703 5:0.193277 6:-0.787611 7:-0.579954 8:-0.680565 9:-0.709019 10:-0.624315 
128 1:-1 2:1 3:-1 4:0.148649 5:0.159664 6:-0.752212 7:-0.532849 8:-0.656355 9:-0.539171 10:-0.564524 
128 1:1 2:-1 3:-1 5:-0.00840336 6:-0.787611 7:-0.687976 8:-0.743107 9:-0.749835 10:-0.733931 
128 1:1 2:-1 3:-1 4:0.0675676 5:0.109244 6:-0.761062 7:-0.58385 8:-0.629455 9:-0.685319 10:-0.664175 
128 1:-1 2:1 3:-1 4:0.162162 5:0.159664 6:-0.778761 7:-0.588454 8:-0.670477 9:-0.658986 10:-0.65421 
128 1:1 2:-1 3:-1 4:0.0135135 5:-0.0252101 6:-0.814159 7:-0.709934 8:-0.759247 9:-0.705069 10:-0.733931 
128 1:1 2:-1 3:-1 4:0.162162 5:0.176471 6:-0.80531 7:-0.558704 8:-0.591123 9:-0.579987 10:-0.65421 
128 1:1 2:-1 3:-1 4:0.202703 5:0.159664 6:-0.787611 7:-0.590579 8:-0.686617 9:-0.655036 10:-0.63428 
128 1:-1 2:1 3:-1 4:-0.121622 5:-0.109244 6:-0.80531 7:-0.751372 8:-0.812374 9:-0.741935 10:-0.803687 
128 1:1 2:-1 3:-1 4:0.405405 5:0.411765 6:-0.752212 7:-0.332743 8:-0.513786 9:-0.503621 10:-0.375187 
128 1:-1 2:1 3:-1 4:0.351351 5:0.310924 6:-0.752212 7:-0.334868 8:-0.484196 9:-0.337722 10:-0.434978 
128 1:-1 2:1 3:-1 4:0.0405405 5:0.00840336 6:-0.769912 7:-0.635205 8:-0.704775 9:-0.701119 10:-0.674141 
128 1:1 2:-1 3:-1 4:0.243243 5:0.277311 6:-0.734513 7:-0.48787 8:-0.639543 9:-0.636603 10:-0.504733 
128 1:1 2:-1 3:-1 4:0.0675676 5:0.0756303 6:-0.769912 7:-0.630954 8:-0.713517 9:-0.65372 10:-0.714001 
128 1:1 2:-1 3:-1 4:0.0675676 5:0.0588235 6:-0.769912 7:-0.631309 8:-0.731002 9:-0.651086 10:-0.674141 
128 1:-1 2:1 3:-1 4:0.175676 5:0.12605 6:-0.761062 7:-0.552683 8:-0.690652 9:-0.529954 10:-0.604385 
128 1:-1 2:1 3:-1 4:-0.027027 5:0.142857 6:-0.814159 7:-0.743935 8:-0.818426 9:-0.743252 10:-0.743896 
128 1:1 2:-1 3:-1 4:0.135135 5:0.142857 6:-0.778761 7:-0.61785 8:-0.68191 9:-0.647136 10:-0.694071 
128 1:1 2:-1 3:-1 4:0.0540541 5:0.0252101 6:-0.814159 7:-0.696122 8:-0.770007 9:-0.719552 10:-0.65421 
128 1:1 2:-1 3:-1 4:-0.0540541 5:-0.00840336 6:-0.814159 7:-0.723039 8:-0.826496 9:-0.835418 10:-0.674141 
128 1:-1 2:1 3:-1 4:0.310811 5:0.260504 6:-0.734513 7:-0.376306 8:-0.535306 9:-0.548387 10:-0.385152 
128 1:-1 2:1 3:-1 4:0.0675676 5:0.0420168 6:-0.814159 7:-0.703559 8:-0.782112 9:-0.728769 10:-0.723966 
128 1:-1 2:1 3:-1 4:-0.0135135 5:-0.00840336 6:-0.778761 7:-0.715601 8:-0.765972 9:-0.835418 10:-0.745889 
128 1:-1 2:1 3:-1 4:-0.0540541 5:-0.0756303 6:-0.79646 7:-0.71383 8:-0.781439 9:-0.788018 10:-0.732935 
128 1:-1 2:1 3:-1 4:-0.108108 5:-0.092437 6:-0.80531 7:-0.749602 8:-0.798252 9:-0.835418 10:-0.769806 
128 1:1 2:-1 3:-1 4:-0.189189 5:-0.226891 6:-0.831858 7:-0.822206 8:-0.872226 9:-0.849901 10:-0.818635 
128 1:-1 2:1 3:-1 4:0.432432 5:0.495798 6:-0.672566 7:-0.209138 8:-0.370545 9:-0.320606 10:-0.335326 
128 1:-1 2:1 3:-1 4:0.22973 5:0.142857 6:-0.743363 7:-0.452453 8:-0.587088 9:-0.556287 10:-0.494768 
128 1:1 2:-1 3:-1 4:0.216216 5:0.277311 6:-0.725664 7:-0.247034 8:-0.34768 9:-0.387755 10:-0.434978 
128 1:-1 2:1 3:-1 4:0.202703 5:0.176471 6:-0.79646 7:-0.451744 8:-0.570948 9:-0.515471 10:-0.564524 
128 1:-1 2:-1 3:1 4:-0.22973 5:-0.310924 6:-0.840708 7:-0.874978 8:-0.914593 9:-0.903884 10:-0.853513 
128 1:-1 2:1 3:-1 4:0.378378 5:0.361345 6:-0.699115 7:-0.340889 8:-0.510424 9:-0.287689 10:-0.425012 
128 1:-1 2:-1 3:1 4:-0.243243 5:-0.260504 6:-0.849558 7:-0.845582 8:-0.877606 9:-0.843318 10:-0.704036 
128 1:-1 2:1 3:-1 4:0.0135135 5:-0.0252101 6:-0.787611 7:-0.706393 8:-0.778749 9:-0.751152 10:-0.733931 
128 1:-1 2:1 3:-1 4:-0.0135135 5:-0.0420168 6:-0.752212 7:-0.659996 8:-0.751177 9:-0.715602 10:-0.684106 
128 1:-1 2:-1 3:1 4:-0.121622 5:-0.176471 6:-0.80531 7:-0.778289 8:-0.854741 9:-0.824885 10:-0.763827 
128 1:1 2:-1 3:-1 4:0.148649 5:0.176471 6:-0.752212 7:-0.565433 8:-0.677202 9:-0.644503 10:-0.59442 
128 1:1 2:-1 3:-1 4:0.0135135 5:-0.00840336 6:-0.769912 7:-0.67558 8:-0.767317 9:-0.709019 10:-0.733931 
128 1:-1 2:-1 3:1 4:-0.108108 5:-0.176471 6:-0.787611 7:-0.771914 8:-0.831204 9:-0.816985 10:-0.783757 
128 1:-1 2:1 3:-1 4:-0.0810811 5:-0.159664 6:-0.769912 7:-0.774748 8:-0.825824 9:-0.802502 10:-0.793722 
128 1:-1 2:1 3:-1 5:-0.092437 6:-0.778761 7:-0.679122 8:-0.761264 9:-0.705069 10:-0.723966 
128 1:-1 2:1 3:-1 4:0.121622 5:0.0756303 6:-0.734513 7:-0.593767 8:-0.705447 9:-0.62212 10:-0.624315 
128 1:-1 2:1 3:-1 4:0.148649 5:0.0588235 6:-0.761062 7:-0.682663 8:-0.770679 9:-0.723502 10:-0.694071 
128 1:-1 2:1 3:-1 4:-0.148649 5:-0.210084 6:-0.778761 7:-0.785019 8:-0.838601 9:-0.785385 10:-0.823617 
128 1:-1 2:-1 3:1 4:-0.27027 5:-0.277311 6:-0.80531 7:-0.850186 8:-0.891056 9:-0.857801 10:-0.863478 
128 1:-1 2:-1 3:1 4:-0.310811 5:-0.344538 6:-0.814159 7:-0.879936 8:-0.913248 9:-0.909151 10:-0.883408 
128 1:1 2:-1 3:-1 4:-0.472973 5:-0.512605 6:-0.858407 7:-0.916062 8:-0.938803 9:-0.927584 10:-0.923269 
128 1:1 2:-1 3:-1 4:-0.256757 5:-0.260504 6:-0.80531 7:-0.794227 8:-0.836584 9:-0.834101 10:-0.822621 
128 1:1 2:-1 3:-1 4:0.0675676 5:0.12605 6:-0.734513 7:-0.551266 8:-0.707465 9:-0.768269 10:-0.494768 
21.358662489228283 1:-1 2:-1 3:1 4:-0.22973 5:-0.226891 6:-0.814159 7:-0.830352 8:-0.878278 9:-0.851218 10:-0.853513 
128 1:-1 2:1 3:-1 4:0.027027 5:0.00840336 6:-0.787611 7:-0.683018 8:-0.763282 9:-0.727452 10:-0.704036 
128 1:1 2:-1 3:-1 4:-0.0135135 5:0.00840336 6:-0.778761 7:-0.663184 8:-0.823806 9:-0.786702 10:-0.624315 
128 1:1 2:-1 3:-1 4:-0.202703 5:-0.243697 6:-0.814159 7:-0.835665 8:-0.879623 9:-0.847268 10:-0.853513 
128 1:-1 2:1 3:-1 4:-0.108108 5:-0.159664 6:-0.831858 7:-0.75456 8:-0.805649 9:-0.765635 10:-0.803687 
128 1:-1 2:-1 3:1 4:-0.310811 5:-0.327731 6:-0.831858 7:-0.879582 8:-0.912576 9:-0.934167 10:-0.883408 
128 1:1 2:-1 3:-1 4:-0.297297 5:-0.294118 6:-0.814159 7:-0.844165 8:-0.875588 9:-0.853851 10:-0.853513 
128 1:1 2:-1 3:-1 4:-0.22973 5:-0.193277 6:-0.814159 7:-0.830707 8:-0.885003 9:-0.861751 10:-0.813652 
94.261917581636638 1:-1 2:-1 3:1 4:-0.22973 5:-0.243697 6:-0.840708 7:-0.841686 8:-0.882313 9:-0.895984 10:-0.823617 
128 1:-1 2:1 3:-1 4:-0.121622 5:-0.092437 6:-0.787611 7:-0.77581 8:-0.821116 9:-0.852535 10:-0.813652 
128 1:-1 2:1 3:-1 4:0.0405405 5:0.243697 6:-0.725664 7:-0.472995 8:-0.597176 9:-0.601053 10:-0.524664 
128 1:-1 2:1 3:-1 4:0.216216 5:0.226891 6:-0.716814 7:-0.465911 8:-0.632145 9:-0.545754 10:-0.454908 
128 1:-1 2:-1 3:1 4:-0.189189 5:-0.159664 6:-0.79646 7:-0.809102 8:-0.877606 9:-0.806452 10:-0.823617 
128 1:-1 2:1 3:-1 4:0.445946 5:0.478992 6:-0.672566 7:-0.1847 8:-0.28043 9:-0.23634 10:-0.514699 
128 1:1 2:-1 3:-1 4:0.364865 5:0.344538 6:-0.699115 7:-0.34266 8:-0.452589 9:-0.319289 10:-0.564524 
128 1:-1 2:1 3:-1 4:0.027027 5:0.0588235 6:-0.814159 7:-0.652559 8:-0.710827 9:-0.673469 10:-0.733931 
128 1:-1 2:-1 3:1 4:-0.27027 5:-0.260504 6:-0.831858 7:-0.860103 8:-0.899798 9:-0.860434 10:-0.863478 
128 1:1 2:-1 3:-1 4:0.0675676 5:0.092437 6:-0.743363 7:-0.585975 8:-0.680565 9:-0.62212 10:-0.63428 
128 1:-1 2:1 3:-1 4:0.108108 5:0.0420168 6:-0.787611 7:-0.584558 8:-0.638198 9:-0.656353 10:-0.65421 
128 1:1 2:-1 3:-1 4:0.189189 5:0.344538 6:-0.761062 7:-0.489641 8:-0.604573 9:-0.573404 10:-0.534629 
128 1:-1 2:1 3:-1 4:-0.027027 5:-0.092437 6:-0.80531 7:-0.694351 8:-0.761937 9:-0.741935 10:-0.694071 
128 1:1 2:-1 3:-1 4:0.0135135 5:0.00840336 6:-0.79646 7:-0.662121 8:-0.715535 9:-0.726136 10:-0.704036 
128 1:1 2:-1 3:-1 4:0.337838 5:0.294118 6:-0.831858 7:-0.415619 8:-0.544721 9:-0.418038 10:-0.534629 
128 1:-1 2:-1 3:1 4:-0.22973 5:-0.260504 6:-0.831858 7:-0.847707 8:-0.888366 9:-0.886768 10:-0.823617 
128 1:-1 2:1 3:-1 4:0.310811 5:0.344538 6:-0.663717 7:-0.495661 8:-0.620713 9:-0.661619 10:-0.454908 
128 1:-1 2:-1 3:1 4:-0.22973 5:-0.243697 6:-0.814159 7:-0.860457 8:-0.907868 9:-0.882818 10:-0.843548 
128 1:-1 2:1 3:-1 4:0.22973 5:0.294118 6:-0.761062 7:-0.446432 8:-0.580363 9:-0.549704 10:-0.567514 
128 1:-1 2:1 3:-1 4:0.0540541 5:-0.00840336 6:-0.79646 7:-0.703205 8:-0.790854 9:-0.761685 10:-0.734928 
128 1:1 2:-1 3:-1 4:-0.162162 5:-0.176471 6:-0.831858 7:-0.831415 8:-0.882313 9:-0.845951 10:-0.833582 
128 1:-1 2:1 3:-1 4:-0.027027 5:-0.0588235 6:-0.80531 7:-0.732247 8:-0.773369 9:-0.774852 10:-0.783757 
128 1:1 2:-1 3:-1 5:-0.00840336 6:-0.79646 7:-0.745352 8:-0.790854 9:-0.818302 10:-0.769806 
128 1:-1 2:1 3:-1 4:-0.0135135 5:-0.0420168 6:-0.814159 7:-0.743581 8:-0.802286 9:-0.789335 10:-0.768809 
128 1:-1 2:1 3:-1 4:-0.202703 5:-0.210084 6:-0.79646 7:-0.824332 8:-0.852051 9:-0.851218 10:-0.853513 
128 1:-1 2:1 3:-1 4:0.283784 5:0.260504 6:-0.752212 7:-0.496016 8:-0.656355 9:-0.511521 10:-0.554559 
128 1:1 2:-1 3:-1 4:-0.324324 5:-0.378151 6:-0.867257 7:-0.891624 8:-0.937458 9:-0.907834 10:-0.883408 
128 1:-1 2:1 3:-1 4:-0.175676 5:-0.159664 6:-0.831858 7:-0.802019 8:-0.832549 9:-0.863068 10:-0.823617 
128 1:-1 2:1 3:-1 4:-0.0405405 5:-0.0420168 6:-0.787611 7:-0.724455 8:-0.792199 9:-0.751152 10:-0.72297 
128 1:-1 2:-1 3:1 4:0.0675676 5:0.0252101 6:-0.769912 7:-0.631309 8:-0.735037 9:-0.720869 10:-0.674141 
128 1:1 2:-1 3:-1 4:-0.22973 5:-0.193277 6:-0.823009 7:-0.852311 8:-0.912576 9:-0.863068 10:-0.853513 
128 1:1 2:-1 3:-1 4:-0.243243 5:-0.294118 6:-0.840708 7:-0.882415 8:-0.934095 9:-0.893351 10:-0.877429 
128 1:1 2:-1 3:-1 4:0.0945946 5:0.0756303 6:-0.743363 7:-0.451036 8:-0.710827 9:-0.658986 10:-0.664175 
128 1:-1 2:1 3:-1 4:0.0810811 5:0.0252101 6:-0.778761 7:-0.684788 8:-0.773369 9:-0.788018 10:-0.723966 
128 1:-1 2:1 3:-1 4:-0.202703 5:-0.260504 6:-0.823009 7:-0.843811 8:-0.876261 9:-0.932851 10:-0.843548 
128 1:-1 2:1 3:-1 4:-0.027027 5:-0.092437 6:-0.79646 7:-0.724101 8:-0.794217 9:-0.753785 10:-0.763827 
128 1:1 2:-1 3:-1 4:-0.175676 5:-0.210084 6:-0.787611 7:-0.800956 8:-0.843309 9:-0.828835 10:-0.833582 
128 1:-1 2:1 3:-1 5:-0.0756303 6:-0.814159 7:-0.680893 8:-0.759247 9:-0.730086 10:-0.757848 
104.15062139483544 1:1 2:-1 3:-1 4:-0.121622 5:-0.176471 6:-0.778761 7:-0.706039 8:-0.744452 9:-0.764319 10:-0.768809 
128 1:1 2:-1 3:-1 4:-0.243243 5:-0.294118 6:-0.849558 7:-0.85904 8:-0.908541 9:-0.861751 10:-0.864474 
128 1:1 2:-1 3:-1 4:0.202703 5:0.109244 6:-0.752212 7:-0.534266 8:-0.667115 9:-0.465438 10:-0.684106 
128 1:1 2:-1 3:-1 4:-0.27027 5:-0.277311 6:-0.831858 7:-0.861874 8:-0.911903 9:-0.869651 10:-0.863478 
128 1:-1 2:-1 3:1 4:0.108108 5:0.0756303 6:-0.752212 7:-0.632371 8:-0.732347 9:-0.677419 10:-0.664175 
128 1:1 2:-1 3:-1 4:-0.162162 5:-0.260504 6:-0.79646 7:-0.811227 8:-0.870208 9:-0.784068 10:-0.833582 
128 1:1 2:-1 3:-1 4:0.027027 5:-0.0420168 6:-0.761062 7:-0.674163 8:-0.776059 9:-0.585253 10:-0.763827 
128 1:-1 2:-1 3:1 4:-0.162162 5:-0.243697 6:-0.778761 7:-0.828582 8:-0.864156 9:-0.901251 10:-0.833582 
128 1:-1 2:1 3:-1 4:0.189189 5:0.12605 6:-0.769912 7:-0.593767 8:-0.735709 9:-0.658986 10:-0.635277 
128 1:-1 2:1 3:-1 4:0.162162 5:0.12605 6:-0.716814 7:-0.545245 8:-0.66846 9:-0.468071 10:-0.67713 
128 1:1 2:-1 3:-1 4:0.0675676 5:0.0588235 6:-0.681416 7:-0.640163 8:-0.743779 9:-0.662936 10:-0.679123 
128 1:1 2:-1 3:-1 4:-0.0135135 5:-0.0588235 6:-0.80531 7:-0.72233 8:-0.790182 9:-0.748519 10:-0.759841 
128 1:1 2:-1 3:-1 4:-0.0540541 5:-0.0756303 6:-0.769912 7:-0.689393 8:-0.796907 9:-0.755102 10:-0.694071 
128 1:1 2:-1 3:-1 4:-0.108108 5:-0.159664 6:-0.787611 7:-0.77581 8:-0.835239 9:-0.763002 10:-0.813652 
128 1:-1 2:-1 3:1 4:-0.202703 5:-0.260504 6:-0.752212 7:-0.844519 8:-0.870881 9:-0.881501 10:-0.880419 
52.283666089045461 1:-1 2:-1 3:1 4:0.0135135 5:-0.00840336 6:-0.769912 7:-0.613954 8:-0.671822 9:-0.631336 10:-0.72297 
128 1:1 2:-1 3:-1 4:0.0675676 5:0.0756303 6:-0.787611 7:-0.590225 8:-0.643578 9:-0.755102 10:-0.666168 
128 1:-1 2:-1 3:1 4:0.0810811 5:0.0420168 6:-0.778761 7:-0.614308 8:-0.693342 9:-0.689269 10:-0.660189 
128 1:-1 2:1 3:-1 4:0.0945946 5:0.0420168 6:-0.761062 7:-0.548433 8:-0.605245 9:-0.703752 10:-0.65421 
99.380097942309803 1:1 2:-1 3:-1 4:0.121622 5:0.109244 6:-0.778761 7:-0.570037 8:-0.589106 9:-0.748519 10:-0.649228 
128 1:-1 2:1 3:-1 4:0.135135 5:0.193277 6:-0.778761 7:-0.466265 8:-0.550101 9:-0.661619 10:-0.576482 
128 1:1 2:-1 3:-1 4:0.148649 5:0.159664 6:-0.778761 7:-0.578183 8:-0.638198 9:-0.665569 10:-0.672147 
128 1:1 2:-1 3:-1 4:0.162162 5:0.294118 6:-0.752212 7:-0.415265 8:-0.542031 9:-0.512837 10:-0.526657 
128 1:1 2:-1 3:-1 4:0.216216 5:0.142857 6:-0.769912 7:-0.460599 8:-0.547411 9:-0.62607 10:-0.554559 
128 1:-1 2:1 3:-1 4:0.283784 5:0.260504 6:-0.778761 7:-0.347618 8:-0.458642 9:-0.540487 10:-0.438964 
128 1:1 2:-1 3:-1 4:0.297297 5:0.277311 6:-0.743363 7:-0.315389 8:-0.330868 9:-0.55892 10:-0.527653 
128 1:1 2:-1 3:-1 4:0.337838 5:0.344538 6:-0.734513 7:-0.327076 8:-0.477471 9:-0.433838 10:-0.455904 
128 1:-1 2:1 3:-1 4:0.351351 5:0.378151 6:-0.752212 7:-0.322826 8:-0.406859 9:-0.523371 10:-0.463876 
128 1:1 2:-1 3:-1 4:0.391892 5:0.411765 6:-0.707965 7:-0.238534 8:-0.390047 9:-0.358789 10:-0.386148 
128 1:-1 2:1 3:-1 4:0.405405 5:0.428571 6:-0.716814 7:-0.144679 8:-0.298588 9:-0.221856 10:-0.365222 
128 1:-1 2:1 3:-1 4:0.405405 5:0.411765 6:-0.716814 7:-0.193554 8:-0.265636 9:-0.393022 10:-0.46288 
128 1:1 2:-1 3:-1 4:0.432432 5:0.344538 6:-0.716814 7:-0.219763 8:-0.435104 9:-0.207373 10:-0.355257 
128 1:1 2:-1 3:-1 4:0.459459 5:0.529412 6:-0.734513 7:-0.0834071 8:-0.268325 9:-0.128374 10:-0.365222 
128 1:1 2:-1 3:-1 4:0.472973 5:0.495798 6:-0.707965 7:-0.0756154 8:-0.146604 9:-0.331139 10:-0.375187 
128 1:1 2:-1 3:-1 4:0.513514 5:0.529412 6:-0.699115 7:-0.0412608 8:-0.168796 9:-0.198157 10:-0.22571 
128 1:-1 2:1 3:-1 4:0.513514 5:0.445378 6:-0.707965 7:-0.0844696 8:-0.102892 9:-0.315339 10:-0.461883 
128 1:-1 2:1 3:-1 4:0.527027 5:0.529412 6:-0.707965 7:0.0511776 8:0.0201748 9:-0.127057 10:-0.363229 
128 1:1 2:-1 3:-1 4:0.567568 5:0.563025 6:-0.707965 7:-0.00301045 8:-0.213181 9:-0.235023 10:-0.195815 
128 1:-1 2:1 3:-1 4:0.621622 5:0.579832 6:-0.725664 7:0.0458651 8:-0.156691 9:-0.104674 10:-0.165919 
128 1:-1 2:1 3:-1 5:-0.0588235 6:-0.80531 7:-0.692934 8:-0.728985 9:-0.712969 10:-0.764823 
128 1:-1 2:-1 3:1 4:0.0135135 5:0.0252101 6:-0.769912 7:-0.66283 8:-0.744452 9:-0.666886 10:-0.729945 
128 1:-1 2:-1 3:1 4:0.027027 5:0.00840336 6:-0.778761 7:-0.624225 8:-0.698722 9:-0.669519 10:-0.711011 
128 1:-1 2:1 3:-1 4:0.0675676 5:0.0420168 6:-0.787611 7:-0.589162 8:-0.611298 9:-0.759052 10:-0.712008 
128 1:1 2:-1 3:-1 4:0.0810811 5:0.0588235 6:-0.778761 7:-0.621038 8:-0.702757 9:-0.681369 10:-0.704036 
128 1:1 2:-1 3:-1 4:0.0945946 5:0.109244 6:-0.743363 7:-0.548079 8:-0.607935 9:-0.631336 10:-0.689088 
128 1:-1 2:1 3:-1 4:0.108108 5:0.0588235 6:-0.79646 7:-0.662476 8:-0.73302 9:-0.749835 10:-0.745889 
128 1:1 2:-1 3:-1 4:0.135135 5:0.159664 6:-0.761062 7:-0.569329 8:-0.635508 9:-0.623436 10:-0.715994 
128 1:1 2:-1 3:-1 4:0.148649 5:0.159664 6:-0.778761 7:-0.525058 8:-0.549428 9:-0.685319 10:-0.639263 
128 1:-1 2:1 3:-1 4:0.162162 5:0.12605 6:-0.769912 7:-0.523995 8:-0.575656 9:-0.63002 10:-0.647235 
128 1:-1 2:-1 3:1 4:0.162162 5:0.00840336 6:-0.778761 7:-0.575704 8:-0.665098 9:-0.684003 10:-0.63428 
128 1:1 2:-1 3:-1 4:0.175676 5:0.12605 6:-0.761062 7:-0.456703 8:-0.472091 9:-0.61817 10:-0.624315 
128 1:-1 2:-1 3:1 4:0.175676 5:0.176471 6:-0.761062 7:-0.456703 8:-0.509751 9:-0.583937 10:-0.644245 
128 1:1 2:-1 3:-1 4:0.175676 5:0.176471 6:-0.734513 7:-0.503099 8:-0.534633 9:-0.648453 10:-0.627304 
128 1:1 2:-1 3:-1 4:0.175676 5:0.193277 6:-0.743363 7:-0.437577 8:-0.481506 9:-0.523371 10:-0.613353 
128 1:-1 2:1 3:-1 4:0.189189 5:0.260504 6:-0.752212 7:-0.410661 8:-0.507734 9:-0.474654 10:-0.544594 
128 1:-1 2:1 3:-1 4:0.216216 5:0.210084 6:-0.752212 7:-0.488578 8:-0.533961 9:-0.545754 10:-0.65421 
128 1:-1 2:1 3:-1 4:0.22973 5:0.243697 6:-0.769912 7:-0.46414 8:-0.564223 9:-0.482554 10:-0.59442 
128 1:-1 2:1 3:-1 4:0.22973 5:0.243697 6:-0.734513 7:-0.399681 8:-0.560188 9:-0.390388 10:-0.600399 
128 1:1 2:-1 3:-1 4:0.22973 5:0.176471 6:-0.778761 7:-0.539933 8:-0.63618 9:-0.57867 10:-0.632287 
128 1:-1 2:1 3:-1 4:0.243243 5:0.159664 6:-0.761062 7:-0.419515 8:-0.472091 9:-0.485188 10:-0.59442 
128 1:1 2:-1 3:-1 4:0.243243 5:0.260504 6:-0.752212 7:-0.493891 8:-0.61735 9:-0.581303 10:-0.573493 
128 1:1 2:-1 3:-1 4:0.243243 5:0.277311 6:-0.752212 7:-0.382327 8:-0.498991 9:-0.398288 10:-0.565521 
128 1:-1 2:1 3:-1 4:0.283784 5:0.310924 6:-0.725664 7:-0.299805 8:-0.26967 9:-0.532587 10:-0.56851 
128 1:-1 2:1 3:-1 4:0.283784 5:0.260504 6:-0.752212 7:-0.427307 8:-0.506389 9:-0.577354 10:-0.454908 
128 1:-1 2:1 3:-1 4:0.310811 5:0.344538 6:-0.716814 7:-0.316451 8:-0.392737 9:-0.456221 10:-0.456901 
128 1:-1 2:1 3:-1 4:0.324324 5:0.159664 6:-0.769912 7:-0.507349 8:-0.587761 9:-0.56287 10:-0.644245 
128 1:-1 2:1 3:-1 4:0.337838 5:0.344538 6:-0.734513 7:-0.217284 8:-0.27505 9:-0.329822 10:-0.464873 
128 1:1 2:-1 3:-1 4:0.337838 5:0.310924 6:-0.752212 7:-0.248096 8:-0.293208 9:-0.423305 10:-0.524664 
128 1:1 2:-1 3:-1 4:0.337838 5:0.361345 6:-0.699115 7:-0.361431 8:-0.453262 9:-0.491771 10:-0.576482 
128 1:1 2:-1 3:-1 4:0.351351 5:0.411765 6:-0.716814 7:-0.212325 8:-0.334902 9:-0.278473 10:-0.425012 
128 1:-1 2:1 3:-1 4:0.351351 5:0.361345 6:-0.716814 7:-0.220117 8:-0.27774 9:-0.419355 10:-0.506726 
128 1:-1 2:1 3:-1 4:0.364865 5:0.361345 6:-0.734513 7:-0.211263 8:-0.251513 9:-0.407505 10:-0.425012 
128 1:-1 2:1 3:-1 4:0.364865 5:0.361345 6:-0.681416 7:-0.256596 8:-0.450572 9:-0.317972 10:-0.452915 
128 1:-1 2:1 3:-1 4:0.364865 5:0.327731 6:-0.743363 7:-0.196033 8:-0.250168 9:-0.421988 10:-0.425012 
128 1:1 2:-1 3:-1 4:0.364865 5:0.462185 6:-0.769912 7:-0.198512 8:-0.213181 9:-0.325872 10:-0.530643 
128 1:1 2:-1 3:-1 4:0.391892 5:0.394958 6:-0.716814 7:-0.147158 8:-0.357095 9:-0.362739 10:-0.387145 
128 1:-1 2:1 3:-1 4:0.391892 5:0.344538 6:-0.743363 7:-0.248451 8:-0.308003 9:-0.357472 10:-0.504733 
128 1:1 2:-1 3:-1 4:0.405405 5:0.411765 6:-0.707965 7:-0.142199 8:-0.166106 9:-0.360105 10:-0.456901 
128 1:-1 2:1 3:-1 4:0.405405 5:0.361345 6:-0.752212 7:-0.289888 8:-0.375252 9:-0.449638 10:-0.501744 
128 1:1 2:-1 3:-1 4:0.405405 5:0.344538 6:-0.734513 7:-0.261909 8:-0.30464 9:-0.420671 10:-0.464873 
128 1:-1 2:1 3:-1 4:0.432432 5:0.462185 6:-0.734513 7:-0.197804 8:-0.293208 9:-0.304806 10:-0.415047 
128 1:1 2:-1 3:-1 4:0.432432 5:0.411765 6:-0.725664 7:-0.179033 8:-0.232011 9:-0.354839 10:-0.454908 
128 1:-1 2:1 3:-1 4:0.459459 5:0.428571 6:-0.716814 7:-0.11422 8:-0.214526 9:-0.317972 10:-0.345291 
128 1:-1 2:1 3:-1 4:0.486486 5:0.495798 6:-0.707965 7:-0.0890738 8:-0.230666 9:-0.202107 10:-0.375187 
128 1:-1 2:1 3:-1 4:0.486486 5:0.445378 6:-0.646018 7:-0.0239065 8:-0.215198 9:-0.206057 10:-0.203787 
128 1:1 2:-1 3:-1 4:0.5 5:0.445378 6:-0.725664 7:-0.0961573 8:-0.144586 9:-0.277156 10:-0.385152 
128 1:1 2:-1 3:-1 4:0.5 5:0.428571 6:-0.734513 7:-0.166637 8:-0.303968 9:-0.348255 10:-0.358246 
128 1:1 2:-1 3:-1 4:0.540541 5:0.563025 6:-0.690265 7:0.104303 8:-0.0477471 9:-0.0651745 10:-0.20578 
128 1:-1 2:1 3:-1 4:0.540541 5:0.512605 6:-0.707965 7:0.0132814 8:-0.0813719 9:-0.190257 10:-0.333333 
128 1:1 2:-1 3:-1 4:0.554054 5:0.478992 6:-0.716814 7:-0.0777404 8:-0.234701 9:-0.179724 10:-0.260588 
128 1:-1 2:1 3:-1 4:0.567568 5:0.361345 6:-0.716814 7:0.0568443 8:-0.0739744 9:-0.129691 10:-0.639263 
128 1:1 2:-1 3:-1 4:0.581081 5:0.613445 6:-0.663717 7:0.125199 8:-0.137189 9:-0.219223 10:0.0284006 
128 1:-1 2:1 3:-1 4:0.581081 5:0.411765 6:-0.681416 7:-0.0313441 8:-0.139206 9:-0.227123 10:-0.335326 
128 1:1 2:-1 3:-1 4:0.662162 5:0.579832 6:-0.690265 7:0.203117 8:0.108944 9:-0.0480579 10:-0.195815 
128 1:1 2:-1 3:-1 4:0.121622 5:0.378151 6:-0.778761 7:-0.631309 8:-0.685272 9:-0.658986 10:-0.721973 
128 1:-1 2:-1 3:1 4:0.148649 5:0.0756303 6:-0.787611 7:-0.617496 8:-0.712172 9:-0.695853 10:-0.664175 
128 1:-1 2:1 3:-1 4:0.162162 5:0.12605 6:-0.778761 7:-0.615725 8:-0.670477 9:-0.60632 10:-0.72297 
128 1:-1 2:1 3:-1 4:0.175676 5:0.159664 6:-0.778761 7:-0.615371 8:-0.650303 9:-0.698486 10:-0.726956 
128 1:1 2:-1 3:-1 4:0.202703 5:0.159664 6:-0.743363 7:-0.45139 8:-0.527236 9:-0.515471 10:-0.63428 
128 1:-1 2:1 3:-1 4:0.202703 5:0.361345 6:-0.734513 7:-0.279617 8:-0.297915 9:-0.478604 10:-0.496761 
128 1:-1 2:-1 3:1 4:0.216216 5:0.159664 6:-0.752212 7:-0.575704 8:-0.648285 9:-0.662936 10:-0.63727 
128 1:1 2:-1 3:-1 4:0.216216 5:0.176471 6:-0.787611 7:-0.466265 8:-0.496301 9:-0.591837 10:-0.602392 
128 1:-1 2:-1 3:1 4:0.22973 5:0.159664 6:-0.778761 7:-0.56437 8:-0.626093 9:-0.666886 10:-0.624315 
128 1:-1 2:1 3:-1 4:0.283784 5:0.260504 6:-0.734513 7:-0.40641 8:-0.470074 9:-0.487821 10:-0.558545 
128 1:1 2:-1 3:-1 4:0.310811 5:0.260504 6:-0.743363 7:-0.364264 8:-0.37727 9:-0.533904 10:-0.536622 
128 1:1 2:-1 3:-1 4:0.310811 5:0.310924 6:-0.716814 7:-0.366389 8:-0.436449 9:-0.428571 10:-0.561535 
128 1:-1 2:1 3:-1 4:0.310811 5:0.294118 6:-0.725664 7:-0.547724 8:-0.549428 9:-0.536537 10:-0.514699 
128 1:1 2:-1 3:-1 4:0.310811 5:0.210084 6:-0.743363 7:-0.39791 8:-0.422999 9:-0.504937 10:-0.59442 
128 1:1 2:-1 3:-1 4:0.324324 5:0.344538 6:-0.734513 7:-0.321764 8:-0.387357 9:-0.370639 10:-0.544594 
128 1:-1 2:1 3:-1 4:0.324324 5:0.327731 6:-0.690265 7:-0.286347 8:-0.400134 9:-0.375905 10:-0.475835 
128 1:1 2:-1 3:-1 4:0.337838 5:0.361345 6:-0.734513 7:-0.266513 8:-0.273033 9:-0.465438 10:-0.504733 
128 1:-1 2:1 3:-1 4:0.337838 5:0.310924 6:-0.743363 7:-0.379848 8:-0.447209 9:-0.429888 10:-0.564524 
128 1:-1 2:-1 3:1 4:0.337838 5:0.294118 6:-0.734513 7:-0.466619 8:-0.540686 9:-0.579987 10:-0.556552 
128 1:-1 2:1 3:-1 4:0.351351 5:0.361345 6:-0.743363 7:-0.296972 8:-0.37458 9:-0.398288 10:-0.474838 
128 1:1 2:-1 3:-1 4:0.351351 5:0.277311 6:-0.752212 7:-0.402515 8:-0.462004 9:-0.498354 10:-0.560538 
128 1:-1 2:1 3:-1 4:0.351351 5:0.394958 6:-0.707965 7:-0.385869 8:-0.416274 9:-0.482554 10:-0.52865 
128 1:1 2:-1 3:-1 4:0.351351 5:0.344538 6:-0.761062 7:-0.358952 8:-0.430397 9:-0.482554 10:-0.484803 
128 1:1 2:-1 3:-1 4:0.351351 5:0.310924 6:-0.699115 7:-0.277138 8:-0.262946 9:-0.428571 10:-0.54858 
128 1:1 2:-1 3:-1 4:0.351351 5:0.310924 6:-0.743363 7:-0.401452 8:-0.443174 9:-0.489138 10:-0.564524 
128 1:1 2:-1 3:-1 4:0.364865 5:0.344538 6:-0.734513 7:-0.212325 8:-0.360457 9:-0.433838 10:-0.474838 
128 1:1 2:-1 3:-1 4:0.364865 5:0.344538 6:-0.654867 7:0.315389 8:0.26967 9:0.120474 10:-0.124066 
128 1:1 2:-1 3:-1 4:0.364865 5:0.310924 6:-0.761062 7:-0.424827 8:-0.493611 9:-0.497038 10:-0.564524 
128 1:1 2:-1 3:-1 4:0.364865 5:0.327731 6:-0.752212 7:-0.320347 8:-0.34768 9:-0.523371 10:-0.498754 
128 1:1 2:-1 3:-1 4:0.364865 5:0.327731 6:-0.743363 7:-0.291305 8:-0.265636 9:-0.481238 10:-0.54559 
128 1:-1 2:1 3:-1 4:0.364865 5:0.327731 6:-0.725664 7:-0.34266 8:-0.483524 9:-0.353522 10:-0.474838 
128 1:1 2:-1 3:-1 4:0.378378 5:0.361345 6:-0.743363 7:-0.340181 8:-0.35844 9:-0.520737 10:-0.534629 
128 1:1 2:-1 3:-1 4:0.378378 5:0.378151 6:-0.716814 7:-0.324597 8:-0.383322 9:-0.379855 10:-0.474838 
128 1:1 2:-1 3:-1 4:0.391892 5:0.394958 6:-0.734513 7:-0.296264 8:-0.354405 9:-0.390388 10:-0.524664 
128 1:-1 2:1 3:-1 4:0.418919 5:0.411765 6:-0.716814 7:-0.274305 8:-0.349025 9:-0.344305 10:-0.491779 
128 1:1 2:-1 3:-1 4:0.418919 5:0.344538 6:-0.699115 7:-0.157429 8:-0.065232 9:-0.370639 10:-0.524664 
128 1:-1 2:1 3:-1 4:0.418919 5:0.378151 6:-0.734513 7:-0.220471 8:-0.267653 9:-0.311389 10:-0.504733 
128 1:-1 2:1 3:-1 4:0.432432 5:0.394958 6:-0.707965 7:-0.167345 8:-0.179556 9:-0.402238 10:-0.421026 
128 1:1 2:-1 3:-1 4:0.432432 5:0.411765 6:-0.752212 7:-0.209846 8:-0.254876 9:-0.324556 10:-0.456901 
128 1:-1 2:1 3:-1 4:0.432432 5:0.411765 6:-0.707965 7:-0.253409 8:-0.418964 9:-0.423305 10:-0.29148 
128 1:1 2:-1 3:-1 4:0.445946 5:0.445378 6:-0.716814 7:-0.282805 8:-0.286483 9:-0.443055 10:-0.521674 
128 1:1 2:-1 3:-1 4:0.445946 5:0.445378 6:-0.743363 7:-0.0589694 8:0.0517821 9:-0.407505 10:-0.431988 
128 1:1 2:-1 3:-1 4:0.445946 5:0.394958 6:-0.707965 7:-0.256242 8:-0.33154 9:-0.364055 10:-0.470852 
128 1:-1 2:1 3:-1 4:0.459459 5:0.378151 6:-0.734513 7:-0.347618 8:-0.380632 9:-0.520737 10:-0.521674 
128 1:-1 2:1 3:-1 4:0.459459 5:0.411765 6:-0.725664 7:-0.273951 8:-0.400134 9:-0.342989 10:-0.434978 
128 1:1 2:-1 3:-1 4:0.472973 5:0.394958 6:-0.761062 7:-0.279263 8:-0.286483 9:-0.473338 10:-0.509716 
128 1:1 2:-1 3:-1 4:0.472973 5:0.327731 6:-0.646018 7:-0.39366 8:-0.425017 9:-0.599737 10:-0.523667 
128 1:-1 2:1 3:-1 4:0.472973 5:0.428571 6:-0.716814 7:-0.213388 8:-0.243443 9:-0.357472 10:-0.44295 
128 1:-1 2:1 3:-1 4:0.486486 5:0.445378 6:-0.690265 7:-0.0278024 8:-0.0147949 9:-0.286373 10:-0.341305 
128 1:1 2:-1 3:-1 4:0.486486 5:0.428571 6:-0.672566 7:-0.146804 8:-0.211836 9:-0.237656 10:-0.432985 
128 1:1 2:-1 3:-1 4:0.5 5:0.394958 6:-0.725664 7:-0.199221 8:-0.209146 9:-0.445688 10:-0.430992 
128 1:-1 2:1 3:-1 4:0.513514 5:0.478992 6:-0.973451 7:-0.182221 8:-0.313383 9:-0.190257 10:-0.428002 
128 1:-1 2:1 3:-1 4:0.554054 5:0.495798 6:-0.663717 7:0.0355941 8:-0.138534 9:-0.108624 10:-0.156951 
128 1:1 2:-1 3:-1 4:0.594595 5:0.579832 6:-0.716814 7:-0.0359483 8:-0.155346 9:-0.266623 10:-0.325361 
128 1:-1 2:-1 3:1 4:0.594595 5:0.495798 6:-0.699115 7:-0.0823446 8:-0.189644 9:-0.235023 10:-0.286497 
128 1:-1 2:1 3:-1 4:0.608108 5:0.512605 6:-0.637168 7:-0.0348858 8:-0.184264 9:-0.20474 10:-0.299452 
128 1:-1 2:1 3:-1 4:0.662162 5:0.630252 6:-0.725664 7:0.0285107 8:-0.162071 9:-0.183673 10:-0.22571 
128 1:-1 2:1 3:-1 4:0.662162 5:0.596639 6:-0.699115 7:0.0989906 8:0.0672495 9:-0.0836076 10:-0.266567 
128 1:1 2:-1 3:-1 4:0.689189 5:0.714286 6:-0.681416 7:0.238888 8:0.202421 9:-0.117841 10:-0.114101 
128 1:-1 2:1 3:-1 4:0.689189 5:0.579832 6:-0.663717 7:0.164866 8:0.147949 9:-0.19289 10:-0.206776 
128 1:-1 2:1 3:-1 4:0.702703 5:0.663866 6:-0.699115 7:-0.137949 8:-0.141224 9:-0.379855 10:-0.403089 
128 1:1 2:-1 3:-1 4:0.743243 5:0.714286 6:-0.743363 7:-0.160616 8:-0.071957 9:-0.489138 10:-0.467862 
57.975516039272975 1:-1 2:-1 3:1 4:-0.702703 5:0.0756303 6:-0.787611 7:-0.672392 8:-0.737727 9:-0.726136 10:-0.704036 
128 1:-1 2:-1 3:1 4:-0.0945946 5:-0.0588235 6:-0.80531 7:-0.767664 8:-0.790182 9:-0.815668 10:-0.664175 
128 1:-1 2:1 3:-1 4:0.027027 5:0.0420168 6:-0.79646 7:-0.696476 8:-0.753867 9:-0.716919 10:-0.754858 
128 1:-1 2:1 3:-1 4:0.0405405 5:0.0420168 6:-0.778761 7:-0.662476 8:-0.724277 9:-0.726136 10:-0.721973 
128 1:-1 2:-1 3:1 4:0.0675676 5:0.00840336 6:-0.681416 7:-0.661413 8:-0.72495 9:-0.724819 10:-0.703039 
128 1:1 2:-1 3:-1 4:0.135135 5:0.142857 6:-0.787611 7:-0.609704 8:-0.700067 9:-0.639236 10:-0.670154 
128 1:1 2:-1 3:-1 4:0.148649 5:0.226891 6:-0.761062 7:-0.522224 8:-0.595158 9:-0.628703 10:-0.59143 
128 1:-1 2:-1 3:1 4:0.148649 5:0.0756303 6:-0.743363 7:-0.590933 8:-0.679892 9:-0.639236 10:-0.63428 
128 1:-1 2:-1 3:1 4:0.148649 5:0.193277 6:-0.752212 7:-0.532849 8:-0.653665 9:-0.573404 10:-0.612357 
128 1:-1 2:-1 3:1 4:0.148649 5:0.142857 6:-0.752212 7:-0.561183 8:-0.607935 9:-0.684003 10:-0.61435 
128 1:-1 2:-1 3:1 4:0.162162 5:0.092437 6:-0.787611 7:-0.580662 8:-0.65232 9:-0.623436 10:-0.644245 
72.098766547011138 1:-1 2:-1 3:1 4:0.189189 5:0.159664 6:-0.761062 7:-0.508057 8:-0.570948 9:-0.670836 10:-0.65421 
128 1:-1 2:-1 3:1 4:0.202703 5:0.142857 6:-0.778761 7:-0.531787 8:-0.597176 9:-0.656353 10:-0.623318 
128 1:1 2:-1 3:-1 4:0.216216 5:0.226891 6:-0.725664 7:-0.404994 8:-0.425689 9:-0.628703 10:-0.595416 
128 1:-1 2:-1 3:1 4:0.22973 5:0.243697 6:-0.769912 7:-0.457765 8:-0.437794 9:-0.684003 10:-0.584454 
128 1:-1 2:-1 3:1 4:0.243243 5:0.210084 6:-0.734513 7:-0.593058 8:-0.517821 9:-0.64582 10:-0.554559 
128 1:-1 2:1 3:-1 4:0.243243 5:0.193277 6:-0.769912 7:-0.495307 8:-0.550773 9:-0.62212 10:-0.589437 
128 1:1 2:-1 3:-1 4:0.243243 5:0.277311 6:-0.734513 7:-0.493536 8:-0.533961 9:-0.620803 10:-0.616343 
128 1:-1 2:-1 3:1 4:0.256757 5:0.226891 6:-0.752212 7:-0.486807 8:-0.570276 9:-0.620803 10:-0.546587 
128 1:-1 2:-1 3:1 4:0.27027 5:0.277311 6:-0.761062 7:-0.454932 8:-0.501009 9:-0.611587 10:-0.550573 
128 1:-1 2:1 3:-1 4:0.27027 5:0.310924 6:-0.734513 7:-0.434744 8:-0.525891 9:-0.572087 10:-0.590433 
128 1:-1 2:1 3:-1 4:0.283784 5:0.176471 6:-0.778761 7:-0.540287 8:-0.602555 9:-0.640553 10:-0.604385 
128 1:1 2:-1 3:-1 4:0.283784 5:0.260504 6:-0.734513 7:-0.381973 8:-0.445864 9:-0.499671 10:-0.508719 
128 1:-1 2:-1 3:1 4:0.283784 5:0.243697 6:-0.761062 7:-0.483974 8:-0.554136 9:-0.59447 10:-0.574489 
128 1:1 2:-1 3:-1 4:0.297297 5:0.294118 6:-0.752212 7:-0.384806 8:-0.453934 9:-0.59052 10:-0.494768 
128 1:-1 2:-1 3:1 4:0.297297 5:0.260504 6:-0.752212 7:-0.458474 8:-0.542703 9:-0.56682 10:-0.544594 
128 1:-1 2:-1 3:1 4:0.297297 5:0.243697 6:-0.743363 7:-0.441473 8:-0.532616 9:-0.536537 10:-0.554559 
128 1:-1 2:-1 3:1 4:0.310811 5:0.243697 6:-0.761062 7:-0.420223 8:-0.501681 9:-0.514154 10:-0.532636 
128 1:-1 2:-1 3:1 4:0.310811 5:0.243697 6:-0.743363 7:-0.514078 8:-0.585071 9:-0.65767 10:-0.5715 
128 1:-1 2:-1 3:1 4:0.310811 5:0.344538 6:-0.743363 7:-0.311493 8:-0.265636 9:-0.576037 10:-0.534629 
128 1:-1 2:1 3:-1 4:0.324324 5:0.327731 6:-0.743363 7:-0.399681 8:-0.434432 9:-0.557604 10:-0.554559 
128 1:1 2:-1 3:-1 4:0.324324 5:0.310924 6:-0.734513 7:-0.437577 8:-0.512441 9:-0.516787 10:-0.566517 
128 1:-1 2:-1 3:1 4:0.337838 5:0.327731 6:-0.761062 7:-0.438994 8:-0.488231 9:-0.628703 10:-0.514699 
128 1:-1 2:1 3:-1 4:0.337838 5:0.361345 6:-0.761062 7:-0.307597 8:-0.467384 9:-0.336406 10:-0.473842 
128 1:1 2:-1 3:-1 4:0.337838 5:0.277311 6:-0.778761 7:-0.366389 8:-0.486214 9:-0.518104 10:-0.454908 
128 1:-1 2:1 3:-1 4:0.351351 5:0.428571 6:-0.707965 7:-0.237825 8:-0.314055 9:-0.449638 10:-0.393124 
128 1:-1 2:1 3:-1 4:0.364865 5:0.310924 6:-0.734513 7:-0.39366 8:-0.463349 9:-0.59052 10:-0.498754 
128 1:1 2:-1 3:-1 4:0.378378 5:0.378151 6:-0.725664 7:-0.353639 8:-0.388702 9:-0.483871 10:-0.534629 
128 1:1 2:-1 3:-1 4:0.378378 5:0.327731 6:-0.681416 7:-0.435098 8:-0.549428 9:-0.512837 10:-0.530643 
128 1:-1 2:-1 3:1 4:0.391892 5:0.310924 6:-0.761062 7:-0.454932 8:-0.560188 9:-0.541804 10:-0.544594 
128 1:1 2:-1 3:-1 4:0.391892 5:0.394958 6:-0.681416 7:-0.160616 8:-0.196369 9:-0.403555 10:-0.385152 
128 1:-1 2:1 3:-1 4:0.432432 5:0.411765 6:-0.690265 7:-0.239242 8:-0.378615 9:-0.423305 10:-0.335326 
128 1:-1 2:-1 3:1 4:0.445946 5:0.378151 6:-0.734513 7:-0.321055 8:-0.396772 9:-0.54707 10:-0.432985 
128 1:1 2:-1 3:-1 4:0.459459 5:0.428571 6:-0.690265 7:-0.209492 8:-0.401479 9:-0.159974 10:-0.405082 
128 1:1 2:-1 3:-1 4:0.486486 5:0.344538 6:-0.699115 7:-0.234992 8:-0.334902 9:-0.383805 10:-0.375187 
128 1:-1 2:1 3:-1 4:0.486486 5:0.546218 6:-0.716814 7:-0.106074 8:-0.232683 9:-0.142857 10:-0.363229 
128 1:-1 2:1 3:-1 4:0.5 5:0.445378 6:-0.699115 7:-0.0660528 8:-0.201748 9:-0.0928242 10:-0.315396 
128 1:-1 2:1 3:-1 4:0.513514 5:0.495798 6:-0.707965 7:0.0324066 8:-0.0531271 9:-0.304806 10:-0.22571 
128 1:-1 2:1 3:-1 4:0.513514 5:0.478992 6:-0.690265 7:-0.143616 8:-0.0504371 9:-0.283739 10:-0.359243 
128 1:1 2:-1 3:-1 4:0.554054 5:0.529412 6:-0.663717 7:0.0908447 8:-0.0390047 9:-0.0177749 10:-0.255605 
128 1:1 2:-1 3:-1 4:0.648649 5:0.647059 6:-0.637168 7:0.268284 8:0.0941493 9:0.0941409 10:-0.0842053 
128 1:-1 2:1 3:-1 4:0.810811 5:0.731092 6:-0.619469 7:0.59235 8:0.554136 9:0.17314 10:0.109118 
3.1788862666939735 1:-1 2:-1 3:1 4:0.0675676 5:0.00840336 6:-0.787611 7:-0.740393 8:-0.831876 9:-0.781435 10:-0.730942 
128 1:1 2:-1 3:-1 4:0.108108 5:0.12605 6:-0.849558 7:-0.545599 8:-0.605245 9:-0.730086 10:-0.608371 
128 1:1 2:-1 3:-1 4:0.108108 5:0.0588235 6:-0.769912 7:-0.628829 8:-0.667115 9:-0.724819 10:-0.693074 
128 1:-1 2:1 3:-1 4:0.135135 5:0.092437 6:-0.787611 7:-0.595537 8:-0.64425 9:-0.662936 10:-0.715994 
128 1:1 2:-1 3:-1 4:0.162162 5:0.109244 6:-0.814159 7:-0.610058 8:-0.679892 9:-0.673469 10:-0.693074 
128 1:1 2:-1 3:-1 4:0.189189 5:0.243697 6:-0.743363 7:-0.338056 8:-0.332885 9:-0.524687 10:-0.567514 
128 1:1 2:-1 3:-1 4:0.202703 5:0.159664 6:-0.778761 7:-0.605454 8:-0.659718 9:-0.635286 10:-0.706029 
128 1:-1 2:-1 3:1 4:0.22973 5:0.260504 6:-0.769912 7:-0.502391 8:-0.535978 9:-0.628703 10:-0.626308 
128 1:-1 2:1 3:-1 4:0.27027 5:0.193277 6:-0.752212 7:-0.47689 8:-0.521856 9:-0.533904 10:-0.598406 
128 1:-1 2:1 3:-1 4:0.283784 5:0.260504 6:-0.752212 7:-0.40641 8:-0.496974 9:-0.427255 10:-0.615346 
128 1:1 2:-1 3:-1 4:0.283784 5:0.243697 6:-0.716814 7:-0.439702 8:-0.540013 9:-0.465438 10:-0.574489 
128 1:-1 2:1 3:-1 4:0.310811 5:0.260504 6:-0.734513 7:-0.381973 8:-0.392065 9:-0.577354 10:-0.564524 
128 1:1 2:-1 3:-1 4:0.337838 5:0.310924 6:-0.734513 7:-0.30193 8:-0.32347 9:-0.456221 10:-0.506726 
128 1:1 2:-1 3:-1 4:0.351351 5:0.378151 6:-0.734513 7:-0.236409 8:-0.201076 9:-0.457538 10:-0.52865 
128 1:1 2:-1 3:-1 4:0.351351 5:0.361345 6:-0.707965 7:-0.352931 8:-0.462677 9:-0.352205 10:-0.527653 
128 1:-1 2:1 3:-1 4:0.364865 5:0.361345 6:-0.690265 7:-0.1762 8:-0.127102 9:-0.420671 10:-0.394121 
128 1:-1 2:1 3:-1 4:0.364865 5:0.277311 6:-0.752212 7:-0.326368 8:-0.362475 9:-0.431205 10:-0.585451 
128 1:1 2:-1 3:-1 4:0.378378 5:0.344538 6:-0.734513 7:-0.35966 8:-0.450572 9:-0.395655 10:-0.537618 
128 1:1 2:-1 3:-1 4:0.391892 5:0.294118 6:-0.734513 7:-0.383389 8:-0.480834 9:-0.435155 10:-0.514699 
128 1:-1 2:1 3:-1 4:0.391892 5:0.378151 6:-0.734513 7:-0.186117 8:-0.176866 9:-0.371955 10:-0.501744 
128 1:-1 2:1 3:-1 4:0.391892 5:0.361345 6:-0.743363 7:-0.299805 8:-0.392065 9:-0.420671 10:-0.454908 
128 1:-1 2:1 3:-1 4:0.405405 5:0.344538 6:-0.716814 7:-0.264742 8:-0.39341 9:-0.302172 10:-0.428999 
128 1:1 2:-1 3:-1 4:0.418919 5:0.344538 6:-0.725664 7:-0.332035 8:-0.414257 9:-0.452271 10:-0.504733 
128 1:1 2:-1 3:-1 4:0.418919 5:0.378151 6:-0.646018 7:-0.109616 8:-0.139879 9:-0.478604 10:-0.29148 
128 1:-1 2:1 3:-1 4:0.432432 5:0.445378 6:-0.716814 7:-0.150699 8:-0.440484 9:-0.24424 10:-0.24564 
128 1:-1 2:1 3:-1 4:0.432432 5:0.546218 6:-0.699115 7:-0.0883655 8:-0.194351 9:-0.225806 10:-0.342302 
128 1:-1 2:-1 3:1 4:0.459459 5:0.411765 6:-0.769912 7:-0.40464 8:-0.526564 9:-0.497038 10:-0.50274 
128 1:-1 2:1 3:-1 4:0.472973 5:0.277311 6:-0.725664 7:-0.284576 8:-0.359785 9:-0.379855 10:-0.454908 
128 1:1 2:-1 3:-1 4:0.472973 5:0.428571 6:-0.707965 7:-0.241721 8:-0.353732 9:-0.382488 10:-0.381166 
128 1:1 2:-1 3:-1 4:0.5 5:0.394958 6:-0.743363 7:-0.221888 8:-0.30195 9:-0.316656 10:-0.452915 
128 1:1 2:-1 3:-1 4:0.5 5:0.344538 6:-0.734513 7:-0.199929 8:-0.354405 9:-0.278473 10:-0.395117 
128 1:1 2:-1 3:-1 4:0.513514 5:0.529412 6:-0.672566 7:-0.074907 8:-0.26967 9:-0.163924 10:-0.251619 
128 1:-1 2:1 3:-1 4:0.527027 5:0.546218 6:-0.637168 7:0.0848238 8:-0.108944 9:-0.120474 10:-0.200797 
128 1:-1 2:1 3:-1 4:0.554054 5:0.495798 6:-0.716814 7:-0.0221356 8:-0.0571621 9:-0.20079 10:-0.366218 
128 1:1 2:-1 3:-1 4:0.554054 5:0.445378 6:-0.752212 7:-0.169116 8:-0.362475 9:-0.360105 10:-0.574489 
128 1:-1 2:-1 3:1 4:0.0810811 5:0.0252101 6:-0.743363 7:-0.553391 8:-0.621385 9:-0.640553 10:-0.624315 
128 1:-1 2:-1 3:1 4:0.0945946 5:0.0588235 6:-0.778761 7:-0.665663 8:-0.760592 9:-0.728769 10:-0.65421 
128 1:1 2:-1 3:-1 4:0.0945946 5:0.00840336 6:-0.716814 7:-0.672747 8:-0.704102 9:-0.722186 10:-0.526657 
128 1:-1 2:-1 3:1 4:0.135135 5:0.159664 6:-0.814159 7:-0.574996 8:-0.664425 9:-0.668203 10:-0.624315 
128 1:-1 2:-1 3:1 4:0.148649 5:0.159664 6:-0.787611 7:-0.565079 8:-0.650303 9:-0.624753 10:-0.617339 
128 1:-1 2:-1 3:1 4:0.148649 5:0.12605 6:-0.787611 7:-0.5796 8:-0.67115 9:-0.61422 10:-0.658196 
128 1:-1 2:-1 3:1 4:0.148649 5:0.0756303 6:-0.752212 7:-0.605454 8:-0.68191 9:-0.64582 10:-0.666168 
128 1:-1 2:-1 3:1 4:0.189189 5:0.12605 6:-0.778761 7:-0.597308 8:-0.681237 9:-0.668203 10:-0.63428 
128 1:-1 2:-1 3:1 4:0.202703 5:0.193277 6:-0.743363 7:-0.543829 8:-0.602555 9:-0.581303 10:-0.674141 
128 1:-1 2:-1 3:1 4:0.202703 5:0.12605 6:-0.769912 7:-0.608642 8:-0.6846 9:-0.712969 10:-0.625311 
128 1:1 2:-1 3:-1 4:0.216216 5:0.210084 6:-0.743363 7:-0.402869 8:-0.527236 9:-0.57077 10:-0.429995 
128 1:-1 2:-1 3:1 4:0.216216 5:0.092437 6:-0.761062 7:-0.565787 8:-0.650303 9:-0.58262 10:-0.65421 
128 1:-1 2:-1 3:1 4:0.216216 5:0.159664 6:-0.752212 7:-0.538162 8:-0.591123 9:-0.579987 10:-0.666168 
128 1:1 2:-1 3:-1 4:0.216216 5:0.159664 6:-0.725664 7:-0.50062 8:-0.622058 9:-0.57867 10:-0.554559 
128 1:-1 2:-1 3:1 4:0.22973 5:0.159664 6:-0.743363 7:-0.608288 8:-0.741089 9:-0.65767 10:-0.61435 
128 1:-1 2:-1 3:1 4:0.243243 5:0.159664 6:-0.769912 7:-0.536037 8:-0.62004 9:-0.57472 10:-0.65421 
128 1:-1 2:-1 3:1 4:0.256757 5:0.260504 6:-0.699115 7:-0.409244 8:-0.500336 9:-0.523371 10:-0.524664 
128 1:-1 2:-1 3:1 4:0.256757 5:0.243697 6:-0.752212 7:-0.475828 8:-0.570948 9:-0.63397 10:-0.504733 
128 1:-1 2:-1 3:1 4:0.256757 5:0.260504 6:-0.752212 7:-0.420931 8:-0.472091 9:-0.54707 10:-0.54559 
128 1:-1 2:-1 3:1 4:0.256757 5:0.226891 6:-0.752212 7:-0.556933 8:-0.664425 9:-0.691903 10:-0.534629 
128 1:-1 2:-1 3:1 4:0.256757 5:0.243697 6:-0.761062 7:-0.515495 8:-0.533961 9:-0.59447 10:-0.578475 
128 1:-1 2:-1 3:1 4:0.27027 5:0.226891 6:-0.778761 7:-0.493536 8:-0.519839 9:-0.706386 10:-0.564524 
128 1:-1 2:-1 3:1 4:0.283784 5:0.243697 6:-0.734513 7:-0.548787 8:-0.639543 9:-0.647136 10:-0.570503 
128 1:-1 2:-1 3:1 4:0.283784 5:0.210084 6:-0.743363 7:-0.447848 8:-0.499664 9:-0.579987 10:-0.561535 
128 1:-1 2:-1 3:1 4:0.283784 5:0.243697 6:-0.734513 7:-0.458474 8:-0.545393 9:-0.537854 10:-0.584454 
128 1:-1 2:-1 3:1 4:0.297297 5:0.277311 6:-0.752212 7:-0.459536 8:-0.470746 9:-0.60632 10:-0.592427 
128 1:-1 2:-1 3:1 4:0.310811 5:0.294118 6:-0.769912 7:-0.488932 8:-0.531944 9:-0.608953 10:-0.604385 
128 1:-1 2:-1 3:1 4:0.324324 5:0.226891 6:-0.725664 7:-0.47512 8:-0.584398 9:-0.511521 10:-0.542601 
128 1:-1 2:1 3:-1 4:0.324324 5:0.294118 6:-0.734513 7:-0.390119 8:-0.416274 9:-0.608953 10:-0.464873 
128 1:1 2:-1 3:-1 4:0.324324 5:0.294118 6:-0.778761 7:-0.433327 8:-0.517821 9:-0.520737 10:-0.574489 
128 1:-1 2:1 3:-1 4:0.337838 5:0.327731 6:-0.761062 7:-0.448557 8:-0.551446 9:-0.514154 10:-0.584454 
128 1:1 2:-1 3:-1 4:0.337838 5:0.327731 6:-0.752212 7:-0.438286 8:-0.546066 9:-0.611587 10:-0.514699 
128 1:-1 2:-1 3:1 4:0.337838 5:0.277311 6:-0.699115 7:-0.400744 8:-0.463349 9:-0.564187 10:-0.504733 
128 1:-1 2:-1 3:1 4:0.337838 5:0.310924 6:-0.725664 7:-0.387285 8:-0.503026 9:-0.552337 10:-0.444943 
128 1:1 2:-1 3:-1 4:0.351351 5:0.344538 6:-0.707965 7:-0.387285 8:-0.494956 9:-0.526004 10:-0.468859 
128 1:-1 2:-1 3:1 4:0.351351 5:0.327731 6:-0.778761 7:-0.448911 8:-0.560861 9:-0.506254 10:-0.534629 
128 1:-1 2:1 3:-1 4:0.351351 5:0.378151 6:-0.654867 7:-0.295555 8:-0.440484 9:-0.350889 10:-0.0662681 
128 1:-1 2:-1 3:1 4:0.351351 5:0.310924 6:-0.699115 7:-0.433682 8:-0.533961 9:-0.615537 10:-0.504733 
128 1:-1 2:1 3:-1 4:0.351351 5:0.277311 6:-0.734513 7:-0.271472 8:-0.381977 9:-0.427255 10:-0.285501 
128 1:1 2:-1 3:-1 4:0.351351 5:0.310924 6:-0.716814 7:-0.407119 8:-0.462677 9:-0.479921 10:-0.526657 
128 1:-1 2:1 3:-1 4:0.364865 5:0.277311 6:-0.734513 7:-0.410661 8:-0.425689 9:-0.60237 10:-0.544594 
128 1:-1 2:-1 3:1 4:0.364865 5:0.310924 6:-0.778761 7:-0.498849 8:-0.593813 9:-0.631336 10:-0.534629 
128 1:-1 2:1 3:-1 4:0.405405 5:0.277311 6:-0.734513 7:-0.36391 8:-0.439812 9:-0.553654 10:-0.474838 
128 1:-1 2:-1 3:1 4:0.405405 5:0.361345 6:-0.734513 7:-0.411015 8:-0.494284 9:-0.494404 10:-0.534629 
128 1:-1 2:1 3:-1 4:0.418919 5:0.361345 6:-0.725664 7:-0.311847 8:-0.427034 9:-0.462804 10:-0.405082 
128 1:-1 2:1 3:-1 4:0.418919 5:0.411765 6:-0.734513 7:-0.200992 8:-0.227976 9:-0.485188 10:-0.395117 
128 1:1 2:-1 3:-1 4:0.418919 5:0.428571 6:-0.707965 7:-0.352222 8:-0.445192 9:-0.483871 10:-0.45989 
128 1:-1 2:-1 3:1 4:0.418919 5:0.428571 6:-0.699115 7:-0.351514 8:-0.490249 9:-0.415405 10:-0.425012 
128 1:1 2:-1 3:-1 4:0.418919 5:0.394958 6:-0.707965 7:-0.251284 8:-0.32347 9:-0.366689 10:-0.454908 
128 1:-1 2:1 3:-1 4:0.432432 5:0.344538 6:-0.743363 7:-0.309014 8:-0.37189 9:-0.533904 10:-0.454908 
128 1:1 2:-1 3:-1 4:0.432432 5:0.411765 6:-0.743363 7:-0.375243 8:-0.485541 9:-0.499671 10:-0.464873 
128 1:-1 2:-1 3:1 4:0.432432 5:0.394958 6:-0.743363 7:-0.432973 8:-0.491594 9:-0.404872 10:-0.564524 
128 1:-1 2:1 3:-1 4:0.432432 5:0.428571 6:-0.752212 7:-0.299451 8:-0.364492 9:-0.383805 10:-0.524664 
128 1:-1 2:1 3:-1 4:0.432432 5:0.394958 6:-0.725664 7:-0.311493 8:-0.472764 9:-0.411455 10:-0.336323 
128 1:1 2:-1 3:-1 4:0.445946 5:0.394958 6:-0.716814 7:-0.277492 8:-0.397445 9:-0.383805 10:-0.416044 
128 1:-1 2:-1 3:1 4:0.445946 5:0.378151 6:-0.778761 7:-0.347972 8:-0.414929 9:-0.500987 10:-0.484803 
128 1:1 2:-1 3:-1 4:0.445946 5:0.394958 6:-0.699115 7:-0.209138 8:-0.298588 9:-0.368005 10:-0.385152 
128 1:-1 2:1 3:-1 4:0.445946 5:0.445378 6:-0.681416 7:-0.0950947 8:-0.229993 9:-0.249506 10:-0.295466 
128 1:1 2:-1 3:-1 4:0.459459 5:0.411765 6:-0.690265 7:-0.134408 8:-0.189644 9:-0.314022 10:-0.383159 
128 1:-1 2:-1 3:1 4:0.472973 5:0.394958 6:-0.752212 7:-0.394723 8:-0.517821 9:-0.579987 10:-0.415047 
128 1:-1 2:1 3:-1 4:0.472973 5:0.428571 6:-0.690265 7:-0.264388 8:-0.37727 9:-0.415405 10:-0.405082 
128 1:1 2:-1 3:-1 4:0.486486 5:0.495798 6:-0.699115 7:-0.223304 8:-0.376597 9:-0.421988 10:-0.297459 
128 1:-1 2:-1 3:1 4:0.486486 5:0.445378 6:-0.734513 7:-0.261909 8:-0.412239 9:-0.246873 10:-0.448929 
128 1:1 2:-1 3:-1 4:0.5 5:0.512605 6:-0.699115 7:-0.228263 8:-0.380632 9:-0.300856 10:-0.405082 
128 1:-1 2:1 3:-1 4:0.5 5:0.495798 6:-0.681416 7:-0.153887 8:-0.31002 9:-0.389072 10:-0.206776 
128 1:-1 2:1 3:-1 4:0.513514 5:0.462185 6:-0.699115 7:-0.107845 8:-0.277068 9:-0.299539 10:-0.24564 
128 1:1 2:-1 3:-1 4:0.540541 5:0.529412 6:-0.663717 7:0.0430317 8:-0.187626 9:-0.0928242 10:-0.0463378 
128 1:1 2:-1 3:-1 4:0.540541 5:0.529412 6:-0.716814 7:-0.0593235 8:-0.104909 9:-0.187623 10:-0.371201 
128 1:-1 2:1 3:-1 4:0.540541 5:0.529412 6:-0.716814 7:-0.122012 8:-0.219233 9:-0.274523 10:-0.375187 
128 1:1 2:-1 3:-1 4:0.540541 5:0.445378 6:-0.734513 7:-0.136179 8:-0.235373 9:-0.281106 10:-0.345291 
128 1:-1 2:1 3:-1 4:0.554054 5:0.478992 6:-0.725664 7:-0.0543651 8:-0.174176 9:-0.159974 10:-0.335326 
128 1:1 2:-1 3:-1 4:0.554054 5:0.529412 6:-0.716814 7:-0.0214273 8:-0.142569 9:-0.23634 10:-0.272546 
128 1:-1 2:1 3:-1 4:0.567568 5:0.529412 6:-0.734513 7:-0.262617 8:-0.356422 9:-0.414088 10:-0.395117 
128 1:1 2:-1 3:-1 4:0.581081 5:0.495798 6:-0.707965 7:-0.0667611 8:-0.104237 9:-0.292956 10:-0.323368 
128 1:1 2:-1 3:-1 4:0.594595 5:0.495798 6:-0.690265 7:-0.0823446 8:-0.184264 9:-0.174457 10:-0.375187 
128 1:-1 2:1 3:-1 4:0.743243 5:0.579832 6:-0.681416 7:0.0221356 8:-0.152656 9:-0.154707 10:-0.136024 
128 1:-1 2:1 3:-1 4:-0.189189 5:-0.277311 6:-0.761062 7:-0.578537 8:-0.635508 9:-0.656353 10:-0.669158 
128 1:-1 2:-1 3:1 4:-0.027027 5:-0.176471 6:-0.787611 7:-0.578891 8:-0.652993 9:-0.635286 10:-0.675137 
128 1:-1 2:-1 3:1 4:0.027027 5:-0.092437 6:-0.761062 7:-0.420577 8:-0.462677 9:-0.549704 10:-0.582461 
128 1:-1 2:-1 3:1 4:0.108108 5:0.0420168 6:-0.814159 7:-0.632725 8:-0.739072 9:-0.677419 10:-0.640259 
128 1:1 2:-1 3:-1 4:0.108108 5:0.0588235 6:-0.725664 7:-0.315743 8:-0.437794 9:-0.354839 10:-0.531639 
128 1:-1 2:-1 3:1 4:0.108108 5:-0.0252101 6:-0.716814 7:-0.385869 8:-0.586416 9:-0.514154 10:-0.367215 
128 1:-1 2:1 3:-1 4:0.121622 5:0.00840336 6:-0.716814 7:-0.378431 8:-0.532616 9:-0.435155 10:-0.43996 
128 1:1 2:-1 3:-1 4:0.148649 5:0.0588235 6:-0.734513 7:-0.249513 8:-0.33692 9:-0.414088 10:-0.413054 
128 1:1 2:-1 3:-1 4:0.189189 5:-0.00840336 6:-0.725664 7:-0.347972 8:-0.438467 9:-0.479921 10:-0.458894 
128 1:1 2:-1 3:-1 4:0.189189 5:0.142857 6:-0.761062 7:-0.288118 8:-0.36651 9:-0.344305 10:-0.500747 
128 1:1 2:-1 3:-1 4:0.216216 5:0.092437 6:-0.778761 7:-0.540995 8:-0.593813 9:-0.593153 10:-0.686099 
128 1:1 2:-1 3:-1 4:0.22973 5:0.193277 6:-0.752212 7:-0.466974 8:-0.531271 9:-0.549704 10:-0.583458 
128 1:-1 2:1 3:-1 4:0.243243 5:0.243697 6:-0.761062 7:-0.455286 8:-0.494956 9:-0.523371 10:-0.645242 
128 1:-1 2:-1 3:1 4:0.243243 5:0.109244 6:-0.681416 7:-0.23393 8:-0.334902 9:-0.396972 10:-0.39711 
128 1:-1 2:-1 3:1 4:0.27027 5:0.226891 6:-0.707965 7:-0.368514 8:-0.431742 9:-0.423305 10:-0.54858 
128 1:-1 2:1 3:-1 4:0.27027 5:0.109244 6:-0.734513 7:-0.209138 8:-0.271688 9:-0.357472 10:-0.435974 
128 1:1 2:-1 3:-1 4:0.337838 5:0.344538 6:-0.690265 7:-0.278909 8:-0.355077 9:-0.436471 10:-0.425012 
128 1:-1 2:-1 3:1 4:0.378378 5:0.327731 6:-0.734513 7:-0.369931 8:-0.466711 9:-0.465438 10:-0.498754 
128 1:1 2:-1 3:-1 4:0.418919 5:0.378151 6:-0.707965 7:-0.266159 8:-0.332213 9:-0.420671 10:-0.50274 
128 1:1 2:-1 3:-1 4:0.432432 5:0.411765 6:-0.690265 7:-0.11422 8:-0.251513 9:-0.19684 10:-0.319382 
128 1:1 2:-1 3:-1 4:0.486486 5:0.478992 6:-0.690265 7:-0.113157 8:-0.219233 9:-0.24819 10:-0.368211 
128 1:-1 2:1 3:-1 4:0.527027 5:0.411765 6:-0.752212 7:-0.241721 8:-0.342972 9:-0.396972 10:-0.385152 
128 1:1 2:-1 3:-1 4:0.540541 5:0.495798 6:-0.716814 7:-0.022844 8:-0.0975118 9:-0.142857 10:-0.375187 
128 1:-1 2:1 3:-1 4:0.567568 5:0.563025 6:-0.646018 7:0.0947406 8:-0.0423672 9:-0.174457 10:-0.0742402 
128 1:-1 2:1 3:-1 4:0.648649 5:0.613445 6:-0.690265 7:0.120949 8:-0.0363147 9:-0.00724161 10:-0.16293 
128 1:-1 2:1 3:-1 4:0.743243 5:0.663866 6:-0.654867 7:0.466974 8:0.439812 9:0.121791 10:-0.00348779 
128 1:-1 2:-1 3:1 4:0.0540541 5:0.0588235 6:-0.80531 7:-0.686205 8:-0.781439 9:-0.748519 10:-0.672147 
128 1:-1 2:-1 3:1 4:0.108108 5:0.109244 6:-0.769912 7:-0.599079 8:-0.664425 9:-0.532587 10:-0.696064 
128 1:-1 2:-1 3:1 4:0.135135 5:0.092437 6:-0.761062 7:-0.640517 8:-0.723605 9:-0.694536 10:-0.674141 
128 1:-1 2:-1 3:1 4:0.135135 5:0.092437 6:-0.743363 7:-0.647246 8:-0.725622 9:-0.611587 10:-0.703039 
128 1:-1 2:-1 3:1 4:0.135135 5:0.0756303 6:-0.752212 7:-0.651496 8:-0.757902 9:-0.744569 10:-0.622322 
128 1:-1 2:-1 3:1 4:0.162162 5:0.159664 6:-0.743363 7:-0.502391 8:-0.552118 9:-0.62607 10:-0.590433 
75.946096204303657 1:1 2:-1 3:-1 4:0.189189 5:0.109244 6:-0.80531 7:-0.591642 8:-0.661063 9:-0.579987 10:-0.723966 
124.1207630312126 1:-1 2:-1 3:1 4:0.202703 5:0.142857 6:-0.778761 7:-0.590225 8:-0.672495 9:-0.616853 10:-0.674141 
128 1:-1 2:-1 3:1 4:0.216216 5:0.176471 6:-0.743363 7:-0.508057 8:-0.591796 9:-0.597103 10:-0.584454 
128 1:-1 2:-1 3:1 4:0.216216 5:0.159664 6:-0.743363 7:-0.569683 8:-0.667787 9:-0.58262 10:-0.65421 
128 1:-1 2:-1 3:1 4:0.22973 5:0.260504 6:-0.752212 7:-0.52187 8:-0.600538 9:-0.747202 10:-0.544594 
128 1:-1 2:-1 3:1 4:0.22973 5:0.260504 6:-0.716814 7:-0.488224 8:-0.569603 9:-0.665569 10:-0.524664 
128 1:-1 2:-1 3:1 4:0.22973 5:0.176471 6:-0.787611 7:-0.553745 8:-0.63618 9:-0.611587 10:-0.629297 
128 1:-1 2:-1 3:1 4:0.243243 5:0.344538 6:-0.752212 7:-0.292013 8:-0.2885 9:-0.536537 10:-0.516692 
128 1:-1 2:1 3:-1 4:0.256757 5:0.243697 6:-0.716814 7:-0.331681 8:-0.507061 9:-0.473338 10:-0.415047 
128 1:-1 2:-1 3:1 4:0.256757 5:0.142857 6:-0.761062 7:-0.537099 8:-0.637525 9:-0.593153 10:-0.620329 
128 1:-1 2:-1 3:1 4:0.256757 5:0.12605 6:-0.778761 7:-0.55835 8:-0.661735 9:-0.585253 10:-0.624315 
128 1:-1 2:-1 3:1 4:0.27027 5:0.260504 6:-0.752212 7:-0.514787 8:-0.64963 9:-0.631336 10:-0.504733 
128 1:-1 2:-1 3:1 4:0.283784 5:0.327731 6:-0.769912 7:-0.431911 8:-0.547411 9:-0.631336 10:-0.544594 
128 1:1 2:-1 3:-1 4:0.297297 5:0.277311 6:-0.752212 7:-0.470515 8:-0.542703 9:-0.568137 10:-0.576482 
128 1:1 2:-1 3:-1 4:0.297297 5:0.193277 6:-0.778761 7:-0.577121 8:-0.685945 9:-0.615537 10:-0.616343 
128 1:1 2:-1 3:-1 4:0.297297 5:0.159664 6:-0.769912 7:-0.500266 8:-0.554808 9:-0.583937 10:-0.644245 
128 1:-1 2:-1 3:1 4:0.297297 5:0.327731 6:-0.690265 7:-0.478661 8:-0.592468 9:-0.539171 10:-0.564524 
128 1:1 2:-1 3:-1 4:0.297297 5:0.344538 6:-0.761062 7:-0.408536 8:-0.487559 9:-0.55102 10:-0.534629 
128 1:-1 2:-1 3:1 4:0.310811 5:0.310924 6:-0.707965 7:-0.412077 8:-0.536651 9:-0.529954 10:-0.446936 
128 1:1 2:-1 3:-1 4:0.324324 5:0.210084 6:-0.778761 7:-0.528953 8:-0.595158 9:-0.59447 10:-0.63428 
128 1:-1 2:-1 3:1 4:0.324324 5:0.277311 6:-0.743363 7:-0.403223 8:-0.466711 9:-0.585253 10:-0.494768 
128 1:1 2:-1 3:-1 4:0.324324 5:0.327731 6:-0.716814 7:-0.367452 8:-0.443174 9:-0.487821 10:-0.512706 
128 1:1 2:-1 3:-1 4:0.337838 5:0.294118 6:-0.690265 7:-0.334514 8:-0.489576 9:-0.399605 10:-0.438964 
128 1:-1 2:1 3:-1 4:0.337838 5:0.294118 6:-0.787611 7:-0.432619 8:-0.487559 9:-0.599737 10:-0.536622 
128 1:1 2:-1 3:-1 4:0.351351 5:0.327731 6:-0.769912 7:-0.445369 8:-0.573638 9:-0.493088 10:-0.55157 
128 1:1 2:-1 3:-1 4:0.351351 5:0.327731 6:-0.725664 7:-0.309722 8:-0.335575 9:-0.436471 10:-0.534629 
128 1:-1 2:1 3:-1 4:0.351351 5:0.378151 6:-0.690265 7:-0.22295 8:-0.364492 9:-0.469388 10:-0.305431 
128 1:-1 2:1 3:-1 4:0.351351 5:0.260504 6:-0.725664 7:-0.437932 8:-0.532616 9:-0.494404 10:-0.564524 
128 1:1 2:-1 3:-1 4:0.351351 5:0.411765 6:-0.743363 7:-0.394369 8:-0.508406 9:-0.545754 10:-0.466866 
128 1:-1 2:1 3:-1 4:0.364865 5:0.327731 6:-0.654867 7:-0.415973 8:-0.458642 9:-0.545754 10:-0.554559 
128 1:1 2:-1 3:-1 4:0.364865 5:0.294118 6:-0.716814 7:-0.413848 8:-0.548756 9:-0.473338 10:-0.507723 
128 1:-1 2:1 3:-1 4:0.432432 5:0.344538 6:-0.743363 7:-0.390827 8:-0.552118 9:-0.478604 10:-0.405082 
128 1:1 2:-1 3:-1 4:0.445946 5:0.428571 6:-0.752212 7:-0.271117 8:-0.412912 9:-0.312706 10:-0.464873 
128 1:-1 2:1 3:-1 4:0.445946 5:0.361345 6:-0.725664 7:-0.323535 8:-0.429052 9:-0.481238 10:-0.474838 
128 1:1 2:-1 3:-1 4:0.459459 5:0.394958 6:-0.734513 7:-0.231096 8:-0.332213 9:-0.25609 10:-0.467862 
128 1:1 2:-1 3:-1 4:0.472973 5:0.462185 6:-0.734513 7:-0.15495 8:-0.381977 9:-0.206057 10:-0.295466 
128 1:1 2:-1 3:-1 4:0.472973 5:0.394958 6:-0.734513 7:-0.0741987 8:-0.211836 9:0.158657 10:-0.355257 
128 1:1 2:-1 3:-1 4:0.486486 5:0.546218 6:-0.699115 7:-0.0586152 8:-0.231338 9:-0.210007 10:-0.283508 
128 1:1 2:-1 3:-1 4:0.5 5:0.462185 6:-0.725664 7:-0.11422 8:-0.154001 9:-0.353522 10:-0.427005 
128 1:1 2:-1 3:-1 4:0.527027 5:0.462185 6:-0.725664 7:-0.202054 8:-0.359785 9:-0.292956 10:-0.325361 
128 1:1 2:-1 3:-1 4:0.567568 5:0.563025 6:-0.699115 7:-0.190721 8:-0.2885 9:-0.414088 10:-0.309417 
128 1:-1 2:-1 3:1 4:0.175676 5:0.344538 6:-0.761062 7:-0.515849 8:-0.61466 9:-0.595787 10:-0.597409 
128 1:1 2:-1 3:-1 4:0.189189 5:0.159664 6:-0.752212 7:-0.552683 8:-0.613988 9:-0.619487 10:-0.668161 
128 1:1 2:-1 3:-1 4:0.216216 5:0.193277 6:-0.769912 7:-0.514432 8:-0.539341 9:-0.607637 10:-0.651221 
128 1:-1 2:1 3:-1 4:0.22973 5:0.260504 6:-0.734513 7:-0.476536 8:-0.564223 9:-0.512837 10:-0.612357 
128 1:-1 2:1 3:-1 4:0.22973 5:0.176471 6:-0.769912 7:-0.551266 8:-0.64694 9:-0.589203 10:-0.63428 
128 1:-1 2:1 3:-1 4:0.310811 5:0.193277 6:-0.716814 7:-0.419515 8:-0.541358 9:-0.516787 10:-0.498754 
128 1:1 2:-1 3:-1 4:0.324324 5:0.310924 6:-0.743363 7:-0.345847 8:-0.416947 9:-0.443055 10:-0.509716 
128 1:1 2:-1 3:-1 4:0.364865 5:0.361345 6:-0.716814 7:-0.248451 8:-0.311365 9:-0.289006 10:-0.479821 
128 1:1 2:-1 3:-1 4:0.581081 5:0.546218 6:-0.654867 7:0.107491 8:-0.0134499 9:-0.0717577 10:-0.233682 
128 1:-1 2:1 3:-1 4:-0.121622 5:-0.159664 6:-0.716814 7:-0.740747 8:-0.768662 9:-0.815668 10:-0.793722 
128 1:1 2:-1 3:-1 4:0.0135135 5:-0.00840336 6:-0.769912 7:-0.671684 8:-0.72226 9:-0.726136 10:-0.733931 
81.514290925079678 1:-1 2:1 3:-1 4:0.027027 5:0.00840336 6:1 7:-0.580662 8:-0.554808 9:-0.695853 10:-0.736921 
128 1:-1 2:1 3:-1 4:0.0810811 5:0.092437 6:-0.752212 7:-0.51337 8:-0.575656 9:-0.655036 10:-0.613353 
128 1:1 2:-1 3:-1 4:0.108108 5:0.12605 6:-0.761062 7:-0.56437 8:-0.665098 9:-0.647136 10:-0.67713 
128 1:1 2:-1 3:-1 4:0.148649 5:0.12605 6:-0.761062 7:-0.447848 8:-0.515804 9:-0.58657 10:-0.527653 
128 1:-1 2:1 3:-1 4:0.148649 5:0.092437 6:-0.752212 7:-0.551266 8:-0.628783 9:-0.624753 10:-0.647235 
128 1:1 2:-1 3:-1 4:0.243243 5:0.226891 6:-0.778761 7:-0.478661 8:-0.523874 9:-0.502304 10:-0.645242 
128 1:-1 2:1 3:-1 4:0.243243 5:0.226891 6:-0.769912 7:-0.506287 8:-0.581036 9:-0.589203 10:-0.597409 
128 1:-1 2:1 3:-1 4:0.256757 5:0.226891 6:-0.769912 7:-0.469807 8:-0.506389 9:-0.560237 10:-0.635277 
128 1:-1 2:1 3:-1 4:0.27027 5:0.260504 6:-0.716814 7:-0.403577 8:-0.470746 9:-0.512837 10:-0.542601 
128 1:1 2:-1 3:-1 4:0.283784 5:0.193277 6:-0.769912 7:-0.384806 8:-0.402152 9:-0.444371 10:-0.578475 
128 1:-1 2:1 3:-1 4:0.324324 5:0.294118 6:-0.761062 7:-0.413494 8:-0.472764 9:-0.544437 10:-0.52865 
128 1:1 2:-1 3:-1 4:0.364865 5:0.327731 6:-0.787611 7:-0.386223 8:-0.439139 9:-0.612903 10:-0.483807 
128 1:-1 2:1 3:-1 4:0.364865 5:0.277311 6:-0.734513 7:-0.407119 8:-0.532616 9:-0.456221 10:-0.620329 
128 1:1 2:-1 3:-1 4:0.405405 5:0.378151 6:-0.734513 7:-0.350452 8:-0.418292 9:-0.536537 10:-0.480817 
128 1:-1 2:1 3:-1 4:0.445946 5:0.260504 6:-0.752212 7:-0.357535 8:-0.412239 9:-0.474654 10:-0.564524 
128 1:1 2:-1 3:-1 4:0.445946 5:0.428571 6:-0.707965 7:-0.120595 8:-0.251513 9:-0.296906 10:-0.261584 
128 1:-1 2:1 3:-1 4:0.472973 5:0.462185 6:-0.716814 7:-0.253409 8:-0.338265 9:-0.358789 10:-0.45989 
128 1:1 2:-1 3:-1 4:0.540541 5:0.478992 6:-0.734513 7:-0.144679 8:-0.190316 9:-0.415405 10:-0.327354 
128 1:1 2:-1 3:-1 4:0.554054 5:0.495798 6:-0.752212 7:-0.124491 8:-0.172159 9:-0.381172 10:-0.365222 
128 1:-1 2:1 3:-1 4:0.162162 5:0.12605 6:-0.79646 7:-0.533912 8:-0.591796 9:-0.591837 10:-0.65421 
128 1:1 2:-1 3:-1 4:-0.0540541 5:-0.0756303 6:-0.858407 7:-0.745706 8:-0.821116 9:-0.784068 10:-0.753861 
128 1:1 2:-1 3:-1 4:0.0675676 5:-0.00840336 6:-0.823009 7:-0.663184 8:-0.747814 9:-0.768269 10:-0.65421 
128 1:1 2:-1 3:-1 4:0.216216 5:0.176471 6:-0.769912 7:-0.492474 8:-0.562206 9:-0.481238 10:-0.65421 
128 1:-1 2:1 3:-1 4:0.0945946 5:0.092437 6:-0.787611 7:-0.570746 8:-0.637525 9:-0.631336 10:-0.63428 
128 1:1 2:-1 3:-1 4:-0.0540541 5:-0.092437 6:-0.823009 7:-0.768018 8:-0.817754 9:-0.810402 10:-0.783757 
128 1:1 2:-1 3:-1 4:0.0675676 5:0.0756303 6:-0.79646 7:-0.699309 8:-0.774714 9:-0.802502 10:-0.704036 
128 1:1 2:-1 3:-1 4:0.378378 5:0.344538 6:-0.752212 7:-0.314326 8:-0.37996 9:-0.514154 10:-0.415047 
128 1:-1 2:1 3:-1 4:-0.0135135 5:-0.0756303 6:-0.79646 7:-0.717726 8:-0.809011 9:-0.703752 10:-0.763827 
128 1:-1 2:1 3:-1 4:0.310811 5:0.243697 6:-0.778761 7:-0.341243 8:-0.515804 9:-0.440421 10:-0.335326 
128 1:1 2:-1 3:-1 4:0.027027 5:-0.00840336 6:-0.814159 7:-0.717372 8:-0.789509 9:-0.782752 10:-0.733931 
128 1:-1 2:1 3:-1 4:-0.0810811 5:-0.092437 6:-0.79646 7:-0.756685 8:-0.812374 9:-0.799868 10:-0.783757 
128 1:1 2:-1 3:-1 4:-0.0810811 5:-0.142857 6:-0.840708 7:-0.77156 8:-0.825824 9:-0.807768 10:-0.773792 
128 1:-1 2:1 3:-1 4:-0.121622 5:-0.176471 6:-0.79646 7:-0.787144 8:-0.821789 9:-0.878868 10:-0.816642 
128 1:-1 2:1 3:-1 4:0.283784 5:0.394958 6:-0.734513 7:-0.366035 8:-0.494284 9:-0.516787 10:-0.425012 
128 1:-1 2:1 3:-1 4:0.445946 5:0.327731 6:-0.716814 7:-0.196742 8:-0.444519 9:-0.182357 10:-0.405082 
128 1:1 2:-1 3:-1 4:0.135135 5:0.159664 6:-0.725664 7:-0.428723 8:-0.685945 9:-0.697169 10:-0.305431 
128 1:1 2:-1 3:-1 5:-0.0420168 6:-0.787611 7:-0.684434 8:-0.741762 9:-0.728769 10:-0.743896 
128 1:-1 2:1 3:-1 4:0.202703 5:0.159664 6:-0.778761 7:-0.515141 8:-0.604573 9:-0.549704 10:-0.63428 
128 1:1 2:-1 3:-1 4:-0.0675676 5:-0.0252101 6:-0.814159 7:-0.69683 8:-0.765972 9:-0.748519 10:-0.743896 
128 1:1 2:-1 3:-1 4:-0.0675676 5:-0.0420168 6:-0.79646 7:-0.702851 8:-0.765972 9:-0.756419 10:-0.733931 
128 1:-1 2:1 3:-1 4:-0.0405405 5:-0.092437 6:-0.787611 7:-0.686205 8:-0.779422 9:-0.739302 10:-0.694071 
128 1:-1 2:1 3:-1 4:0.243243 5:0.361345 6:-0.743363 7:-0.443598 8:-0.544721 9:-0.473338 10:-0.604385 
128 1:-1 2:1 3:-1 4:0.283784 5:0.243697 6:-0.743363 7:-0.436869 8:-0.601883 9:-0.60632 10:-0.474838 
128 1:-1 2:-1 3:1 4:-0.243243 5:-0.243697 6:-0.80531 7:-0.843103 8:-0.891728 9:-0.863068 10:-0.843548 
128 1:1 2:-1 3:-1 4:-0.202703 5:-0.243697 6:-0.831858 7:-0.843811 8:-0.893073 9:-0.867018 10:-0.853513 
128 1:-1 2:1 3:-1 4:0.162162 5:0.159664 6:-0.707965 7:-0.485036 8:-0.64156 9:-0.593153 10:-0.504733 
128 1:-1 2:1 3:-1 4:0.310811 5:0.310924 6:-0.681416 7:-0.361785 8:-0.520511 9:-0.462804 10:-0.415047 
128 1:-1 2:1 3:-1 4:0.0405405 5:0.0252101 6:-0.79646 7:-0.664601 8:-0.718225 9:-0.724819 10:-0.684106 
128 1:-1 2:1 3:-1 4:0.0810811 5:0.092437 6:-0.761062 7:-0.657163 8:-0.767989 9:-0.816985 10:-0.63428 
128 1:1 2:-1 3:-1 4:0.0405405 5:0.0756303 6:-0.752212 7:-0.639809 8:-0.743107 9:-0.726136 10:-0.59442 
128 1:-1 2:1 3:-1 4:0.0675676 5:0.0420168 6:-0.787611 7:-0.616788 8:-0.69267 9:-0.607637 10:-0.704036 
128 1:1 2:-1 3:-1 4:-0.22973 5:-0.277311 6:-0.840708 7:-0.843811 8:-0.889711 9:-0.861751 10:-0.853513 
128 1:1 2:-1 3:-1 4:0.202703 5:0.092437 6:-0.761062 7:-0.588808 8:-0.664425 9:-0.589203 10:-0.65421 
128 1:1 2:-1 3:-1 4:-0.0405405 5:-0.0588235 6:-0.79646 7:-0.71383 8:-0.778077 9:-0.755102 10:-0.733931 
128 1:1 2:-1 3:-1 4:-0.0135135 5:0.0756303 6:-0.769912 7:-0.656455 8:-0.697377 9:-0.747202 10:-0.694071 
128 1:-1 2:-1 3:1 4:0.108108 5:0.210084 6:-0.752212 7:-0.597308 8:-0.665098 9:-0.648453 10:-0.63428 
128 1:-1 2:1 3:-1 4:0.148649 5:0.142857 6:-0.734513 7:-0.495307 8:-0.566241 9:-0.545754 10:-0.61435 
128 1:-1 2:1 3:-1 4:-0.162162 5:-0.159664 6:-0.814159 7:-0.766602 8:-0.817754 9:-0.805135 10:-0.803687 
128 1:-1 2:1 3:-1 4:-0.175676 5:-0.176471 6:-0.840708 7:-0.773685 8:-0.793544 9:-0.803818 10:-0.813652 
128 1:1 2:-1 3:-1 4:0.0810811 5:0.0252101 6:-0.787611 7:-0.591996 8:-0.621385 9:-0.685319 10:-0.664175 
128 1:1 2:-1 3:-1 4:0.0405405 5:0.0756303 6:-0.769912 7:-0.595183 8:-0.664425 9:-0.687953 10:-0.61435 
128 1:-1 2:1 3:-1 4:0.189189 5:0.226891 6:-0.761062 7:-0.555516 8:-0.62273 9:-0.666886 10:-0.574489 
128 1:-1 2:1 3:-1 4:0.0135135 5:0.0252101 6:-0.814159 7:-0.667434 8:-0.72764 9:-0.755102 10:-0.706029 
36.082346591505939 1:1 2:-1 3:-1 4:-0.716216 5:-0.764706 6:-0.911504 7:-0.985125 8:-0.989913 9:-0.986833 10:-0.983059 
128 1:-1 2:1 3:-1 4:-0.0405405 5:-0.0420168 6:-0.80531 7:-0.730831 8:-0.794217 9:-0.749835 10:-0.78575 
128 1:-1 2:1 3:-1 4:0.527027 5:0.495798 6:-0.734513 7:-0.243138 8:-0.502354 9:-0.289006 10:-0.285501 
128 1:-1 2:-1 3:1 4:0.148649 5:0.142857 6:-0.787611 7:-0.621038 8:-0.710155 9:-0.715602 10:-0.647235 
128 1:1 2:-1 3:-1 4:-0.364865 5:-0.361345 6:-0.831858 7:-0.895166 8:-0.930733 9:-0.911784 10:-0.907324 
128 1:-1 2:-1 3:1 4:-0.0675676 5:-0.159664 6:-0.80531 7:-0.803081 8:-0.874916 9:-0.794602 10:-0.812656 
128 1:1 2:-1 3:-1 4:-0.283784 5:-0.327731 6:-0.831858 7:-0.85054 8:-0.892401 9:-0.911784 10:-0.863478 
128 1:-1 2:1 3:-1 4:-0.27027 5:-0.327731 6:-0.823009 7:-0.861874 8:-0.905851 9:-0.867018 10:-0.883408 
128 1:1 2:-1 3:-1 4:0.0810811 5:0.00840336 6:-0.778761 7:-0.673809 8:-0.751177 9:-0.719552 10:-0.714001 
128 1:1 2:-1 3:-1 4:0.148649 5:0.00840336 6:-0.752212 7:-0.627413 8:-0.715535 9:-0.608953 10:-0.723966 
128 1:-1 2:1 3:-1 4:-0.256757 5:-0.294118 6:-0.840708 7:-0.870019 8:-0.901143 9:-0.892034 10:-0.883408 
128 1:-1 2:1 3:-1 4:-0.202703 5:-0.226891 6:-0.814159 7:-0.810165 8:-0.850034 9:-0.847268 10:-0.836572 
128 1:1 2:-1 3:-1 4:-0.135135 5:-0.159664 6:-0.814159 7:-0.801665 8:-0.870208 9:-0.830151 10:-0.811659 
128 1:1 2:-1 3:-1 4:-0.0135135 5:-0.092437 6:-0.858407 7:-0.708872 8:-0.807666 9:-0.734036 10:-0.743896 
128 1:1 2:-1 3:-1 4:-0.0540541 5:-0.092437 6:-0.787611 7:-0.735435 8:-0.810356 9:-0.720869 10:-0.793722 
63.108251356684718 1:-1 2:1 3:-1 4:-0.202703 5:-0.260504 6:-0.858407 7:-0.840623 8:-0.876261 9:-0.836735 10:-0.863478 
128 1:-1 2:1 3:-1 4:0.0675676 5:0.00840336 6:-0.681416 7:-0.689038 8:-0.796234 9:-0.694536 10:-0.733931 
128 1:1 2:-1 3:-1 4:-0.0135135 5:-0.092437 6:-0.79646 7:-0.725164 8:-0.782112 9:-0.772219 10:-0.777778 
128 1:1 2:-1 3:-1 4:-0.121622 5:-0.159664 6:-0.769912 7:-0.793519 8:-0.872226 9:-0.823568 10:-0.793722 
128 1:-1 2:1 3:-1 4:-0.310811 5:-0.310924 6:-0.858407 7:-0.859749 8:-0.917283 9:-0.869651 10:-0.863478 
128 1:1 2:-1 3:-1 4:0.0540541 5:0.0756303 6:-0.80531 7:-0.647246 8:-0.718897 9:-0.703752 10:-0.703039 
128 1:-1 2:1 3:-1 4:0.0540541 5:-0.00840336 6:-0.761062 7:-0.557641 8:-0.652993 9:-0.620803 10:-0.65421 
128 1:-1 2:1 3:-1 4:0.0675676 5:0.0756303 6:-0.787611 7:-0.57535 8:-0.629455 9:-0.61817 10:-0.733931 
128 1:1 2:-1 3:-1 4:0.148649 5:0.159664 6:-0.769912 7:-0.454932 8:-0.503699 9:-0.579987 10:-0.582461 
128 1:-1 2:-1 3:1 4:0.162162 5:0.12605 6:-0.672566 7:-0.567558 8:-0.642233 9:-0.627386 10:-0.660189 
128 1:1 2:-1 3:-1 4:0.216216 5:0.243697 6:-0.663717 7:-0.383744 8:-0.379287 9:-0.54707 10:-0.606378 
128 1:1 2:-1 3:-1 4:0.256757 5:0.226891 6:-0.787611 7:-0.426598 8:-0.474109 9:-0.61817 10:-0.557549 
128 1:-1 2:1 3:-1 4:0.324324 5:0.294118 6:-0.734513 7:-0.305118 8:-0.399462 9:-0.381172 10:-0.507723 
128 1:1 2:-1 3:-1 4:0.391892 5:0.344538 6:-0.716814 7:-0.229325 8:-0.32885 9:-0.418038 10:-0.421026 
128 1:1 2:-1 3:-1 4:0.391892 5:0.428571 6:-0.716814 7:-0.107491 8:-0.236718 9:-0.283739 10:-0.335326 
128 1:-1 2:1 3:-1 4:0.418919 5:0.411765 6:-0.761062 7:0.0189481 8:-0.209818 9:-0.498354 10:-0.370204 
128 1:-1 2:1 3:-1 4:0.418919 5:0.495798 6:-0.725664 7:-0.0579069 8:-0.162744 9:-0.254773 10:-0.305431 
128 1:-1 2:1 3:-1 4:0.418919 5:0.445378 6:-0.707965 7:-0.193554 8:-0.211836 9:-0.428571 10:-0.428999 
128 1:-1 2:1 3:-1 4:0.662162 5:0.663866 6:-0.681416 7:0.173721 8:0.170814 9:-0.302172 10:-0.127055 
128 1:-1 2:1 3:-1 4:0.027027 5:-0.00840336 6:-0.787611 7:-0.678767 8:-0.739744 9:-0.726136 10:-0.728949 
128 1:-1 2:1 3:-1 4:0.0405405 5:-0.00840336 6:-0.79646 7:-0.67558 8:-0.728985 9:-0.707702 10:-0.770802 
128 1:1 2:-1 3:-1 4:0.148649 5:0.0756303 6:-0.743363 7:-0.561183 8:-0.632818 9:-0.564187 10:-0.707025 
128 1:-1 2:-1 3:1 4:0.162162 5:0.109244 6:-0.787611 7:-0.576058 8:-0.679892 9:-0.627386 10:-0.63428 
128 1:1 2:-1 3:-1 4:0.189189 5:0.142857 6:-0.787611 7:-0.543829 8:-0.618023 9:-0.64187 10:-0.660189 
128 1:1 2:-1 3:-1 4:0.216216 5:0.210084 6:-0.761062 7:-0.43864 8:-0.471419 9:-0.503621 10:-0.600399 
128 1:1 2:-1 3:-1 4:0.216216 5:0.243697 6:-0.778761 7:-0.426244 8:-0.458642 9:-0.552337 10:-0.61435 
128 1:-1 2:1 3:-1 4:0.22973 5:0.226891 6:-0.699115 7:-0.414911 8:-0.449899 9:-0.453588 10:-0.703039 
128 1:1 2:-1 3:-1 4:0.22973 5:0.193277 6:-0.752212 7:-0.519037 8:-0.585071 9:-0.628703 10:-0.63727 
128 1:-1 2:1 3:-1 4:0.22973 5:0.176471 6:-0.734513 7:-0.371702 8:-0.455952 9:-0.402238 10:-0.574489 
128 1:1 2:-1 3:-1 4:0.256757 5:0.277311 6:-0.752212 7:-0.48114 8:-0.557498 9:-0.581303 10:-0.578475 
128 1:-1 2:1 3:-1 4:0.297297 5:0.243697 6:-0.752212 7:-0.319285 8:-0.409549 9:-0.411455 10:-0.524664 
128 1:-1 2:1 3:-1 4:0.337838 5:0.310924 6:-0.734513 7:-0.296618 8:-0.32347 9:-0.514154 10:-0.503737 
128 1:-1 2:1 3:-1 4:0.337838 5:0.277311 6:-0.752212 7:-0.393306 8:-0.476126 9:-0.485188 10:-0.54559 
128 1:1 2:-1 3:-1 4:0.351351 5:0.327731 6:-0.725664 7:-0.32991 8:-0.424344 9:-0.458855 10:-0.486796 
128 1:-1 2:1 3:-1 4:0.364865 5:0.310924 6:-0.743363 7:-0.37241 8:-0.449899 9:-0.523371 10:-0.519681 
128 1:-1 2:1 3:-1 4:0.378378 5:0.327731 6:-0.716814 7:-0.360723 8:-0.456624 9:-0.418038 10:-0.537618 
128 1:1 2:-1 3:-1 4:0.391892 5:0.378151 6:-0.752212 7:-0.260492 8:-0.369872 9:-0.308756 10:-0.478824 
128 1:-1 2:1 3:-1 4:0.405405 5:0.394958 6:-0.725664 7:-0.167345 8:-0.27236 9:-0.292956 10:-0.385152 
128 1:-1 2:1 3:-1 4:0.405405 5:0.378151 6:-0.734513 7:-0.238888 8:-0.340955 9:-0.421988 10:-0.430992 
128 1:-1 2:1 3:-1 4:0.418919 5:0.361345 6:-0.743363 7:-0.340889 8:-0.465367 9:-0.410138 10:-0.508719 
128 1:-1 2:1 3:-1 4:0.418919 5:0.361345 6:-0.734513 7:-0.126616 8:-0.190989 9:-0.279789 10:-0.425012 
128 1:1 2:-1 3:-1 4:0.418919 5:0.361345 6:-0.734513 7:-0.118116 8:-0.283793 9:-0.281106 10:-0.425012 
128 1:1 2:-1 3:-1 4:0.445946 5:0.428571 6:-0.734513 7:-0.187179 8:-0.242771 9:-0.279789 10:-0.476831 
128 1:1 2:-1 3:-1 4:0.459459 5:0.394958 6:-0.725664 7:-0.151408 8:-0.317418 9:-0.158657 10:-0.421026 
128 1:-1 2:1 3:-1 4:0.472973 5:0.529412 6:-0.690265 7:-0.10147 8:-0.273033 9:-0.150757 10:-0.360239 
128 1:-1 2:1 3:-1 4:0.472973 5:0.411765 6:-0.716814 7:-0.0632194 8:-0.0780094 9:-0.387755 10:-0.350274 
128 1:-1 2:1 3:-1 4:0.486486 5:0.462185 6:-0.707965 7:-0.203117 8:-0.359785 9:-0.378539 10:-0.368211 
128 1:-1 2:1 3:-1 4:0.486486 5:0.462185 6:-0.690265 7:-0.216929 8:-0.398117 9:-0.431205 10:-0.286497 
128 1:-1 2:1 3:-1 4:0.5 5:0.478992 6:-0.743363 7:-0.18895 8:-0.267653 9:-0.300856 10:-0.428002 
128 1:1 2:-1 3:-1 4:0.5 5:0.428571 6:-0.707965 7:-0.0904905 8:-0.188971 9:-0.287689 10:-0.305431 
128 1:1 2:-1 3:-1 4:0.540541 5:0.462185 6:-0.716814 7:-0.115282 8:-0.281103 9:-0.120474 10:-0.372197 
128 1:-1 2:1 3:-1 4:0.554054 5:0.495798 6:-0.672566 7:0.0196565 8:-0.00470746 9:-0.223173 10:-0.323368 
128 1:1 2:-1 3:-1 4:0.608108 5:0.563025 6:-0.663717 7:0.1592 8:0.0901143 9:-0.0296248 10:-0.223717 
128 1:1 2:-1 3:-1 4:0.662162 5:0.630252 6:-0.672566 7:0.209846 8:0.0376597 9:0.0138249 10:-0.141006 
128 1:-1 2:1 3:-1 4:0.27027 5:0.260504 6:-0.752212 7:-0.412077 8:-0.415602 9:-0.553654 10:-0.602392 
128 1:1 2:-1 3:-1 4:0.27027 5:0.226891 6:-0.743363 7:-0.450328 8:-0.497646 9:-0.59447 10:-0.59442 
128 1:-1 2:1 3:-1 4:0.27027 5:0.159664 6:-0.752212 7:-0.450328 8:-0.506389 9:-0.435155 10:-0.644245 
128 1:-1 2:1 3:-1 4:0.283784 5:0.294118 6:-0.761062 7:-0.403931 8:-0.417619 9:-0.475971 10:-0.63428 
128 1:-1 2:-1 3:1 4:0.297297 5:0.243697 6:-0.769912 7:-0.542412 8:-0.62004 9:-0.651086 10:-0.583458 
128 1:1 2:-1 3:-1 4:0.324324 5:0.260504 6:-0.769912 7:-0.446078 8:-0.531271 9:-0.504937 10:-0.578475 
128 1:-1 2:1 3:-1 4:0.337838 5:0.327731 6:-0.681416 7:-0.358243 8:-0.461332 9:-0.429888 10:-0.494768 
128 1:1 2:-1 3:-1 4:0.337838 5:0.327731 6:-0.761062 7:-0.278909 8:-0.26698 9:-0.464121 10:-0.504733 
128 1:-1 2:1 3:-1 4:0.337838 5:0.260504 6:-0.716814 7:-0.426952 8:-0.480161 9:-0.58262 10:-0.547583 
128 1:-1 2:1 3:-1 4:0.351351 5:0.428571 6:-0.734513 7:-0.366035 8:-0.431742 9:-0.499671 10:-0.508719 
128 1:1 2:-1 3:-1 4:0.364865 5:0.344538 6:-0.769912 7:-0.39791 8:-0.449899 9:-0.54707 10:-0.554559 
128 1:-1 2:1 3:-1 4:0.378378 5:0.327731 6:-0.734513 7:-0.336993 8:-0.373235 9:-0.466754 10:-0.554559 
128 1:-1 2:1 3:-1 4:0.378378 5:0.277311 6:-0.752212 7:-0.508766 8:-0.586416 9:-0.661619 10:-0.555556 
128 1:1 2:-1 3:-1 4:0.391892 5:0.394958 6:-0.734513 7:-0.391535 8:-0.445864 9:-0.569454 10:-0.506726 
128 1:1 2:-1 3:-1 4:0.391892 5:0.361345 6:-0.752212 7:-0.290243 8:-0.33423 9:-0.431205 10:-0.484803 
128 1:-1 2:1 3:-1 4:0.391892 5:0.361345 6:-0.716814 7:-0.28493 8:-0.402824 9:-0.312706 10:-0.491779 
128 1:-1 2:1 3:-1 4:0.405405 5:0.378151 6:-0.734513 7:-0.221888 8:-0.273033 9:-0.564187 10:-0.474838 
128 1:1 2:-1 3:-1 4:0.405405 5:0.394958 6:-0.707965 7:-0.216575 8:-0.340282 9:-0.389072 10:-0.336323 
128 1:1 2:-1 3:-1 4:0.405405 5:0.361345 6:-0.752212 7:-0.39791 8:-0.434432 9:-0.407505 10:-0.550573 
128 1:-1 2:1 3:-1 4:0.459459 5:0.411765 6:-0.699115 7:-0.254117 8:-0.271015 9:-0.353522 10:-0.535625 
128 1:1 2:-1 3:-1 4:0.459459 5:0.327731 6:-0.734513 7:-0.152825 8:-0.0504371 9:-0.449638 10:-0.503737 
128 1:-1 2:1 3:-1 4:0.459459 5:0.394958 6:-0.725664 7:-0.233575 8:-0.209818 9:-0.450955 10:-0.512706 
128 1:1 2:-1 3:-1 4:0.472973 5:0.462185 6:-0.725664 7:-0.222242 8:-0.322125 9:-0.349572 10:-0.385152 
128 1:-1 2:1 3:-1 4:0.486486 5:0.462185 6:-0.725664 7:-0.211617 8:-0.35037 9:-0.271889 10:-0.386148 
128 1:1 2:-1 3:-1 4:0.540541 5:0.546218 6:-0.716814 7:-0.162387 8:-0.32078 9:-0.182357 10:-0.335326 
128 1:1 2:-1 3:-1 4:0.540541 5:0.428571 6:-0.734513 7:-0.157075 8:-0.186954 9:-0.317972 10:-0.434978 
128 1:-1 2:1 3:-1 4:0.540541 5:0.563025 6:-0.681416 7:-0.0911989 8:-0.224613 9:-0.074391 10:-0.371201 
128 1:1 2:-1 3:-1 4:0.554054 5:0.546218 6:-0.778761 7:-0.16522 8:-0.297243 9:-0.25609 10:-0.350274 
128 1:1 2:-1 3:-1 4:0.554054 5:0.563025 6:-0.690265 7:-0.105012 8:-0.174176 9:-0.270573 10:-0.333333 
128 1:1 2:-1 3:-1 4:0.554054 5:0.529412 6:-0.725664 7:-0.0047813 8:-0.0309348 9:-0.21659 10:-0.335326 
128 1:-1 2:1 3:-1 4:0.554054 5:0.462185 6:-0.725664 7:-0.206658 8:-0.268325 9:-0.400922 10:-0.394121 
128 1:-1 2:1 3:-1 4:0.594595 5:0.512605 6:-0.707965 7:-0.0458651 8:-0.196369 9:-0.16524 10:-0.285501 
128 1:1 2:-1 3:-1 4:0.756757 5:0.663866 6:-0.646018 7:0.0681778 8:0.173504 9:0.121791 10:0.0104634 
128 1:-1 2:-1 3:1 4:-0.108108 5:-0.142857 6:-0.80531 7:-0.356827 8:-0.441829 9:-0.454905 10:-0.804684 
128 1:-1 2:-1 3:1 4:0.108108 5:0.0420168 6:-0.752212 7:-0.684434 8:-0.746469 9:-0.757735 10:-0.543597 
128 1:-1 2:-1 3:1 4:0.162162 5:0.109244 6:-0.778761 7:-0.579246 8:-0.671822 9:-0.745885 10:-0.584454 
128 1:-1 2:-1 3:1 4:0.175676 5:0.109244 6:-0.743363 7:-0.458474 8:-0.465367 9:-0.632653 10:-0.643249 
128 1:-1 2:1 3:-1 4:0.189189 5:0.142857 6:-0.761062 7:-0.635913 8:-0.73033 9:-0.65372 10:-0.68012 
128 1:1 2:-1 3:-1 4:0.189189 5:0.193277 6:-0.752212 7:-0.480432 8:-0.589106 9:-0.640553 10:-0.604385 
128 1:-1 2:-1 3:1 4:0.216216 5:0.109244 6:-0.769912 7:-0.571454 8:-0.6846 9:-0.672153 10:-0.61435 
128 1:-1 2:1 3:-1 4:0.27027 5:0.294118 6:-0.734513 7:-0.330264 8:-0.509079 9:-0.371955 10:-0.454908 
128 1:-1 2:-1 3:1 4:0.283784 5:0.226891 6:-0.725664 7:-0.35541 8:-0.335575 9:-0.526004 10:-0.59442 
128 1:-1 2:-1 3:1 4:0.283784 5:0.378151 6:-0.734513 7:-0.33841 8:-0.354405 9:-0.54312 10:-0.517688 
128 1:-1 2:1 3:-1 4:0.297297 5:0.310924 6:-0.690265 7:-0.189304 8:-0.260256 9:-0.358789 10:-0.447932 
128 1:-1 2:1 3:-1 4:0.351351 5:0.277311 6:-0.725664 7:-0.365681 8:-0.447882 9:-0.389072 10:-0.544594 
128 1:-1 2:1 3:-1 4:0.364865 5:0.243697 6:-0.734513 7:-0.403577 8:-0.511096 9:-0.514154 10:-0.463876 
128 1:-1 2:-1 3:1 4:0.378378 5:0.226891 6:-0.743363 7:-0.524349 8:-0.61197 9:-0.647136 10:-0.564524 
128 1:-1 2:1 3:-1 4:0.378378 5:0.344538 6:-0.769912 7:-0.381264 8:-0.448554 9:-0.457538 10:-0.554559 
128 1:1 2:-1 3:-1 4:0.391892 5:0.394958 6:-0.743363 7:-0.347264 8:-0.390047 9:-0.545754 10:-0.496761 
128 1:1 2:-1 3:-1 4:0.418919 5:0.428571 6:-0.840708 7:-0.257659 8:-0.386685 9:-0.294273 10:-0.444943 
128 1:1 2:-1 3:-1 4:0.418919 5:0.327731 6:-0.743363 7:-0.380202 8:-0.419637 9:-0.593153 10:-0.524664 
128 1:1 2:-1 3:-1 4:0.418919 5:0.529412 6:-0.672566 7:-0.0911989 8:-0.181574 9:-0.278473 10:-0.375187 
128 1:-1 2:1 3:-1 4:0.472973 5:0.378151 6:-0.752212 7:-0.179387 8:-0.193679 9:-0.423305 10:-0.391131 
128 1:1 2:-1 3:-1 4:0.554054 5:0.563025 6:-0.725664 7:-0.0324066 8:-0.169469 9:-0.242923 10:-0.275536 
128 1:-1 2:1 3:-1 4:0.581081 5:0.512605 6:-0.663717 7:-0.00655215 8:-0.160054 9:-0.112574 10:-0.256602 
128 1:-1 2:1 3:-1 4:0.621622 5:0.579832 6:-0.699115 7:0.210554 8:0.123739 9:-0.074391 10:-0.0563029 
128 1:-1 2:1 3:-1 4:0.702703 5:0.630252 6:-0.637168 7:0.243138 8:0.110289 9:0.0967742 10:-0.0842053 
128 1:1 2:-1 3:-1 4:0.756757 5:0.731092 6:-0.663717 7:0.649371 8:0.683927 9:0.423305 10:0.0333832 
128 1:-1 2:-1 3:1 4:0.202703 5:0.142857 6:-0.743363 7:-0.455994 8:-0.431069 9:-0.627386 10:-0.625311 
128 1:-1 2:1 3:-1 4:0.216216 5:0.260504 6:-0.761062 7:-0.403931 8:-0.419637 9:-0.527321 10:-0.641256 
128 1:1 2:-1 3:-1 4:0.243243 5:0.176471 6:-0.752212 7:-0.421994 8:-0.460659 9:-0.549704 10:-0.626308 
128 1:-1 2:1 3:-1 4:0.256757 5:0.226891 6:-0.752212 7:-0.432265 8:-0.490249 9:-0.526004 10:-0.584454 
128 1:-1 2:1 3:-1 4:0.256757 5:0.210084 6:-0.734513 7:-0.426598 8:-0.480161 9:-0.507571 10:-0.597409 
128 1:-1 2:1 3:-1 4:0.337838 5:0.243697 6:-0.769912 7:-0.447494 8:-0.504371 9:-0.541804 10:-0.61136 
128 1:1 2:-1 3:-1 4:0.337838 5:0.226891 6:-0.752212 7:-0.381973 8:-0.441829 9:-0.56682 10:-0.504733 
128 1:1 2:-1 3:-1 4:0.364865 5:0.310924 6:-0.716814 7:-0.304409 8:-0.3423 9:-0.472021 10:-0.464873 
128 1:-1 2:1 3:-1 4:0.364865 5:0.310924 6:-0.761062 7:-0.328493 8:-0.35037 9:-0.522054 10:-0.539611 
128 1:1 2:-1 3:-1 4:0.391892 5:0.394958 6:-0.725664 7:-0.170179 8:-0.161399 9:-0.387755 10:-0.4858 
128 1:1 2:-1 3:-1 4:0.391892 5:0.445378 6:-0.725664 7:-0.237471 8:-0.391392 9:-0.360105 10:-0.385152 
128 1:1 2:-1 3:-1 4:0.405405 5:0.277311 6:-0.716814 7:-0.252701 8:-0.429052 9:-0.411455 10:-0.385152 
128 1:1 2:-1 3:-1 4:0.418919 5:0.411765 6:-0.690265 7:-0.215158 8:-0.314728 9:-0.327189 10:-0.434978 
128 1:1 2:-1 3:-1 4:0.486486 5:0.495798 6:-0.769912 7:-0.234992 8:-0.223268 9:-0.462804 10:-0.504733 
128 1:-1 2:1 3:-1 4:0.486486 5:0.445378 6:-0.716814 7:-0.113157 8:-0.206456 9:-0.319289 10:-0.308421 
128 1:-1 2:1 3:-1 4:0.540541 5:0.462185 6:-0.716814 7:-0.175137 8:-0.337592 9:-0.170507 10:-0.407075 
128 1:-1 2:1 3:-1 4:0.540541 5:0.462185 6:-0.716814 7:-0.191075 8:-0.326833 9:-0.24029 10:-0.367215 
128 1:-1 2:-1 3:1 4:0.0405405 5:0.0252101 6:-0.752212 7:-0.684788 8:-0.784802 9:-0.772219 10:-0.684106 
128 1:-1 2:1 3:-1 4:0.0540541 5:-0.00840336 6:-0.80531 7:-0.71206 8:-0.779422 9:-0.732719 10:-0.741903 
128 1:-1 2:-1 3:1 4:0.0675676 5:0.109244 6:-0.769912 7:-0.585621 8:-0.646268 9:-0.693219 10:-0.656203 
128 1:-1 2:-1 3:1 4:0.162162 5:0.243697 6:-0.778761 7:-0.568266 8:-0.671822 9:-0.639236 10:-0.604385 
128 1:-1 2:-1 3:1 4:0.162162 5:0.159664 6:-0.778761 7:-0.604392 8:-0.69805 9:-0.623436 10:-0.664175 
128 1:-1 2:-1 3:1 4:0.175676 5:0.159664 6:-0.743363 7:-0.59235 8:-0.690652 9:-0.624753 10:-0.650224 
128 1:-1 2:-1 3:1 4:0.175676 5:0.159664 6:-0.778761 7:-0.581016 8:-0.679892 9:-0.658986 10:-0.596413 
128 1:1 2:-1 3:-1 4:0.202703 5:0.378151 6:-0.734513 7:-0.328139 8:-0.38803 9:-0.477288 10:-0.494768 
128 1:-1 2:1 3:-1 4:0.243243 5:0.310924 6:-0.778761 7:-0.383389 8:-0.440484 9:-0.477288 10:-0.524664 
128 1:-1 2:-1 3:1 4:0.27027 5:0.260504 6:-0.769912 7:-0.463432 8:-0.519839 9:-0.59842 10:-0.593423 
128 1:-1 2:-1 3:1 4:0.283784 5:0.277311 6:-0.707965 7:-0.431911 8:-0.544048 9:-0.490454 10:-0.516692 
128 1:-1 2:-1 3:1 4:0.283784 5:0.243697 6:-0.769912 7:-0.531078 8:-0.63887 9:-0.572087 10:-0.584454 
128 1:-1 2:1 3:-1 4:0.283784 5:0.277311 6:-0.752212 7:-0.473703 8:-0.534633 9:-0.54312 10:-0.55157 
128 1:-1 2:-1 3:1 4:0.310811 5:0.260504 6:-0.769912 7:-0.485745 8:-0.550101 9:-0.623436 10:-0.569507 
128 1:-1 2:-1 3:1 4:0.310811 5:0.277311 6:-0.769912 7:-0.451036 8:-0.525219 9:-0.545754 10:-0.560538 
128 1:-1 2:1 3:-1 4:0.351351 5:0.243697 6:-0.734513 7:-0.380556 8:-0.389375 9:-0.527321 10:-0.54858 
128 1:-1 2:-1 3:1 4:0.351351 5:0.344538 6:-0.716814 7:-0.300514 8:-0.335575 9:-0.487821 10:-0.512706 
128 1:1 2:-1 3:-1 4:0.351351 5:0.327731 6:-0.707965 7:-0.317514 8:-0.33154 9:-0.500987 10:-0.544594 
128 1:1 2:-1 3:-1 4:0.364865 5:0.378151 6:-0.734513 7:-0.359306 8:-0.502354 9:-0.483871 10:-0.425012 
128 1:-1 2:1 3:-1 4:0.364865 5:0.327731 6:-0.699115 7:-0.313972 8:-0.380632 9:-0.390388 10:-0.508719 
128 1:-1 2:1 3:-1 4:0.364865 5:0.327731 6:-0.734513 7:-0.349743 8:-0.472764 9:-0.443055 10:-0.426009 
128 1:-1 2:-1 3:1 4:0.378378 5:0.327731 6:-0.761062 7:-0.395785 8:-0.490921 9:-0.508887 10:-0.484803 
128 1:1 2:-1 3:-1 4:0.391892 5:0.495798 6:-0.734513 7:-0.192492 8:-0.349025 9:-0.303489 10:-0.315396 
128 1:-1 2:-1 3:1 4:0.391892 5:0.361345 6:-0.778761 7:-0.466619 8:-0.552118 9:-0.60632 10:-0.52865 
128 1:-1 2:-1 3:1 4:0.418919 5:0.310924 6:-0.761062 7:-0.349389 8:-0.402824 9:-0.465438 10:-0.498754 
128 1:-1 2:1 3:-1 4:0.418919 5:0.327731 6:-0.734513 7:-0.319639 8:-0.412912 9:-0.415405 10:-0.449925 
128 1:1 2:-1 3:-1 4:0.432432 5:0.462185 6:-0.681416 7:-0.174783 8:-0.386685 9:-0.237656 10:-0.256602 
128 1:-1 2:1 3:-1 4:0.459459 5:0.546218 6:-0.761062 7:-0.207013 8:-0.268325 9:-0.394338 10:-0.425012 
128 1:-1 2:1 3:-1 4:0.472973 5:0.411765 6:-0.734513 7:-0.325305 8:-0.389375 9:-0.510204 10:-0.450922 
128 1:1 2:-1 3:-1 4:0.5 5:0.596639 6:-0.681416 7:-0.0950947 8:-0.170141 9:-0.327189 10:-0.375187 
128 1:1 2:-1 3:-1 4:0.5 5:0.529412 6:-0.699115 7:-0.159554 8:-0.340282 9:-0.194207 10:-0.309417 
128 1:-1 2:1 3:-1 4:0.513514 5:0.495798 6:-0.663717 7:-0.0876572 8:-0.203766 9:-0.199473 10:-0.301445 
128 1:-1 2:-1 3:1 4:0.608108 5:0.445378 6:-0.690265 7:-0.111387 8:-0.281103 9:-0.15339 10:-0.233682 
128 1:1 2:-1 3:-1 4:0.608108 5:0.579832 6:-0.699115 7:-0.00938551 8:-0.0396772 9:-0.20474 10:-0.231689 
128 1:1 2:-1 3:-1 4:0.608108 5:0.579832 6:-0.654867 7:0.0189481 8:-0.114324 9:-0.296906 10:-0.155954 
128 1:1 2:-1 3:-1 4:0.108108 5:0.0420168 6:-0.725664 7:-0.272534 8:-0.431742 9:-0.399605 10:-0.379173 
128 1:1 2:-1 3:-1 4:0.121622 5:0.00840336 6:-0.725664 7:-0.306534 8:-0.375925 9:-0.470704 10:-0.503737 
128 1:-1 2:1 3:-1 4:0.175676 5:0.0588235 6:-0.628319 7:-0.16345 8:-0.31809 9:-0.23239 10:-0.319382 
128 1:-1 2:1 3:-1 4:0.216216 5:0.193277 6:-0.761062 7:-0.441473 8:-0.454607 9:-0.479921 10:-0.650224 
128 1:-1 2:-1 3:1 4:0.243243 5:0.159664 6:-0.761062 7:-0.452453 8:-0.506389 9:-0.453588 10:-0.593423 
128 1:1 2:-1 3:-1 4:0.297297 5:0.243697 6:-0.734513 7:-0.383035 8:-0.379287 9:-0.515471 10:-0.61136 
128 1:-1 2:1 3:-1 4:0.391892 5:0.294118 6:-0.752212 7:-0.288118 8:-0.359112 9:-0.447005 10:-0.42003 
128 1:1 2:-1 3:-1 4:0.405405 5:0.445378 6:-0.734513 7:-0.23393 8:-0.287828 9:-0.393022 10:-0.452915 
128 1:-1 2:-1 3:1 4:0.405405 5:0.260504 6:-0.707965 7:-0.304055 8:-0.392737 9:-0.456221 10:-0.45989 
128 1:1 2:-1 3:-1 4:0.445946 5:0.411765 6:-0.690265 7:-0.276076 8:-0.451244 9:-0.314022 10:-0.361236 
128 1:1 2:-1 3:-1 4:0.445946 5:0.445378 6:-0.699115 7:-0.0940322 8:-0.198386 9:-0.202107 10:-0.345291 
128 1:-1 2:1 3:-1 4:0.486486 5:0.462185 6:-0.80531 7:-0.196742 8:-0.293208 9:-0.497038 10:-0.42003 
128 1:-1 2:1 3:-1 4:0.513514 5:0.529412 6:-0.699115 7:-0.134762 8:-0.28581 9:-0.287689 10:-0.297459 
128 1:1 2:-1 3:-1 4:0.527027 5:0.445378 6:-0.716814 7:-0.288826 8:-0.38803 9:-0.410138 10:-0.437967 
128 1:-1 2:-1 3:1 4:0.148649 5:0.092437 6:-0.761062 7:-0.627059 8:-0.697377 9:-0.677419 10:-0.586447 
128 1:-1 2:-1 3:1 4:0.189189 5:0.109244 6:-0.778761 7:-0.596246 8:-0.682582 9:-0.623436 10:-0.674141 
128 1:-1 2:-1 3:1 4:0.243243 5:0.226891 6:-0.743363 7:-0.513724 8:-0.634163 9:-0.60237 10:-0.530643 
128 1:1 2:-1 3:-1 4:0.243243 5:0.193277 6:-0.787611 7:-0.517266 8:-0.581036 9:-0.565504 10:-0.686099 
128 1:1 2:-1 3:-1 4:0.310811 5:0.327731 6:-0.743363 7:-0.36816 8:-0.478816 9:-0.449638 10:-0.476831 
128 1:-1 2:-1 3:1 4:0.324324 5:0.294118 6:-0.761062 7:-0.457411 8:-0.556826 9:-0.636603 10:-0.509716 
128 1:1 2:-1 3:-1 4:0.351351 5:0.394958 6:-0.734513 7:-0.308305 8:-0.395427 9:-0.485188 10:-0.452915 
128 1:-1 2:-1 3:1 4:0.351351 5:0.260504 6:-0.769912 7:-0.475474 8:-0.61197 9:-0.473338 10:-0.564524 
128 1:-1 2:-1 3:1 4:0.351351 5:0.310924 6:-0.716814 7:-0.351514 8:-0.3961 9:-0.491771 10:-0.524664 
128 1:1 2:-1 3:-1 4:0.391892 5:0.277311 6:-0.707965 7:-0.309722 8:-0.392737 9:-0.370639 10:-0.534629 
128 1:-1 2:-1 3:1 4:0.391892 5:0.394958 6:-0.743363 7:-0.311493 8:-0.392065 9:-0.379855 10:-0.427005 
128 1:1 2:-1 3:-1 4:0.391892 5:0.176471 6:-0.734513 7:-0.397202 8:-0.562878 9:-0.312706 10:-0.514699 
128 1:1 2:-1 3:-1 4:0.405405 5:0.428571 6:-0.752212 7:-0.355056 8:-0.450572 9:-0.520737 10:-0.427005 
128 1:-1 2:1 3:-1 4:0.405405 5:0.361345 6:-0.716814 7:-0.349035 8:-0.462677 9:-0.468071 10:-0.429995 
128 1:-1 2:1 3:-1 4:0.513514 5:0.462185 6:-0.725664 7:-0.190367 8:-0.359112 9:-0.202107 10:-0.37419 
128 1:1 2:-1 3:-1 4:0.513514 5:0.495798 6:-0.681416 7:-0.183991 8:-0.408877 9:-0.391705 10:-0.231689 
128 1:-1 2:1 3:-1 4:0.527027 5:0.495798 6:-0.734513 7:-0.150345 8:-0.249496 9:-0.393022 10:-0.33433 
128 1:-1 2:1 3:-1 4:0.567568 5:0.462185 6:-0.716814 7:-0.148574 8:-0.267653 9:-0.312706 10:-0.360239 
128 1:1 2:-1 3:-1 4:0.027027 5:-0.00840336 6:-0.80531 7:-0.676997 8:-0.732347 9:-0.709019 10:-0.7429 
128 1:1 2:-1 3:-1 4:0.216216 5:0.159664 6:-0.769912 7:-0.560829 8:-0.64425 9:-0.61422 10:-0.636273 
128 1:-1 2:1 3:-1 4:0.22973 5:0.142857 6:-0.79646 7:-0.598725 8:-0.666443 9:-0.639236 10:-0.682113 
128 1:-1 2:1 3:-1 4:0.283784 5:0.260504 6:-0.734513 7:-0.537454 8:-0.64694 9:-0.680053 10:-0.562531 
128 1:1 2:-1 3:-1 4:0.351351 5:0.428571 6:-0.734513 7:-0.330972 8:-0.415602 9:-0.315339 10:-0.503737 
128 1:1 2:-1 3:-1 4:0.418919 5:0.378151 6:-0.681416 7:-0.156366 8:-0.309348 9:-0.171824 10:-0.394121 
128 1:-1 2:1 3:-1 4:0.0675676 5:0.0252101 6:-0.823009 7:-0.668142 8:-0.781439 9:-0.766952 10:-0.726956 
128 1:1 2:-1 3:-1 4:0.175676 5:0.210084 6:-0.743363 7:-0.469453 8:-0.558171 9:-0.518104 10:-0.598406 
128 1:-1 2:1 3:-1 4:0.216216 5:0.159664 6:-0.769912 7:-0.505932 8:-0.582381 9:-0.656353 10:-0.558545 
128 1:-1 2:1 3:-1 4:0.283784 5:0.243697 6:-0.752212 7:-0.327076 8:-0.342972 9:-0.489138 10:-0.567514 
128 1:1 2:-1 3:-1 4:0.310811 5:0.226891 6:-0.734513 7:-0.381264 8:-0.409549 9:-0.483871 10:-0.541604 
128 1:1 2:-1 3:-1 4:0.351351 5:0.327731 6:-0.761062 7:-0.348681 8:-0.525219 9:-0.450955 10:-0.531639 
128 1:-1 2:1 3:-1 4:0.472973 5:0.445378 6:-0.725664 7:-0.155304 8:-0.314728 9:-0.287689 10:-0.301445 
-128 1:1 2:-1 3:-1 4:0.027027 5:0.0420168 6:-0.831858 7:-0.63733 8:-0.699395 9:-0.735352 10:-0.704036 
-128 1:1 2:-1 3:-1 4:-0.0135135 5:0.0420168 6:-0.778761 7:-0.635913 8:-0.7115 9:-0.701119 10:-0.694071 
-128 1:1 2:-1 3:-1 4:-0.0405405 5:-0.00840336 6:-0.80531 7:-0.71383 8:-0.776059 9:-0.788018 10:-0.733931 
-128 1:1 2:-1 3:-1 4:0.121622 5:0.092437 6:-0.761062 7:-0.61785 8:-0.70881 9:-0.751152 10:-0.624315 
-128 1:-1 2:1 3:-1 4:0.243243 5:0.176471 6:-0.743363 7:-0.516557 8:-0.634835 9:-0.55102 10:-0.59442 
-128 1:1 2:-1 3:-1 4:0.148649 5:0.159664 6:-0.769912 7:-0.530724 8:-0.654338 9:-0.651086 10:-0.524664 
-128 1:-1 2:1 3:-1 4:-0.0135135 5:-0.0420168 6:-0.823009 7:-0.681955 8:-0.748487 9:-0.772219 10:-0.743896 
-128 1:1 2:-1 3:-1 4:-0.243243 5:-0.243697 6:-0.831858 7:-0.827519 8:-0.872898 9:-0.838051 10:-0.853513 
-128 1:-1 2:-1 3:1 4:-0.175676 5:-0.260504 6:-0.823009 7:-0.841686 8:-0.893746 9:-0.872284 10:-0.833582 
-128 1:-1 2:1 3:-1 4:0.324324 5:0.294118 6:-0.725664 7:-0.335931 8:-0.426362 9:-0.437788 10:-0.464873 
-128 1:-1 2:1 3:-1 4:0.459459 5:0.428571 6:-0.707965 7:-0.178679 8:-0.311365 9:-0.20869 10:-0.395117 
-128 1:-1 2:1 3:-1 4:0.310811 5:0.294118 6:-0.752212 7:-0.343722 8:-0.486886 9:-0.506254 10:-0.405082 
-128 1:-1 2:1 3:-1 4:0.364865 5:0.327731 6:-0.672566 7:-0.296264 8:-0.470746 9:-0.285056 10:-0.434978 
-128 1:1 2:-1 3:-1 4:0.351351 5:0.243697 6:-0.752212 7:-0.389764 8:-0.472764 9:-0.403555 10:-0.604385 
-128 1:-1 2:1 3:-1 4:0.256757 5:0.411765 6:-0.725664 7:-0.139366 8:-0.287828 9:-0.191573 10:-0.325361 
-128 1:-1 2:1 3:-1 4:0.351351 5:0.310924 6:-0.761062 7:-0.375952 8:-0.488904 9:-0.465438 10:-0.484803 
-128 1:-1 2:1 3:-1 4:0.283784 5:0.243697 6:-0.761062 7:-0.398265 8:-0.514459 9:-0.485188 10:-0.464873 
-128 1:1 2:-1 3:-1 4:0.108108 5:0.0252101 6:-0.769912 7:-0.61785 8:-0.65232 9:-0.748519 10:-0.684106 
-128 1:-1 2:1 3:-1 4:0.0675676 5:0.0252101 6:-0.787611 7:-0.663184 8:-0.718225 9:-0.723502 10:-0.704036 
-128 1:-1 2:1 3:-1 4:0.22973 5:0.193277 6:-0.769912 7:-0.508057 8:-0.595158 9:-0.491771 10:-0.604385 
-128 1:-1 2:1 3:-1 4:0.0810811 5:0.12605 6:-0.787611 7:-0.625642 8:-0.71419 9:-0.697169 10:-0.664175 
-128 1:-1 2:1 3:-1 4:0.432432 5:0.327731 6:-0.654867 7:-0.223659 8:-0.354405 9:-0.238973 10:-0.375187 
-128 1:-1 2:1 3:-1 4:0.418919 5:0.411765 6:-0.734513 7:-0.287763 8:-0.406187 9:-0.419355 10:-0.444943 
-128 1:1 2:-1 3:-1 4:0.310811 5:0.294118 6:-0.716814 7:-0.389056 8:-0.556826 9:-0.454905 10:-0.484803 
-128 1:1 2:-1 3:-1 4:0.324324 5:0.243697 6:-0.761062 7:-0.426598 8:-0.542703 9:-0.560237 10:-0.494768 
-128 1:1 2:-1 3:-1 4:0.297297 5:0.294118 6:-0.734513 7:-0.466619 8:-0.588433 9:-0.599737 10:-0.484803 
-128 1:-1 2:1 3:-1 4:0.0810811 5:0.0756303 6:-0.778761 7:-0.591642 8:-0.62811 9:-0.777485 10:-0.694071 
-128 1:1 2:-1 3:-1 4:0.283784 5:0.277311 6:-0.743363 7:-0.404285 8:-0.560188 9:-0.497038 10:-0.494768 
-128 1:1 2:-1 3:-1 4:0.22973 5:0.210084 6:-0.752212 7:-0.488578 8:-0.583726 9:-0.560237 10:-0.59442 
-128 1:-1 2:1 3:-1 4:0.202703 5:0.193277 6:-0.725664 7:-0.486453 8:-0.609953 9:-0.518104 10:-0.534629 
-128 1:-1 2:1 3:-1 4:0.148649 5:0.159664 6:-0.778761 7:-0.528599 8:-0.650303 9:-0.655036 10:-0.564524 
-128 1:-1 2:1 3:-1 4:0.27027 5:0.193277 6:-0.778761 7:-0.510182 8:-0.60121 9:-0.616853 10:-0.584454 
-128 1:-1 2:1 3:-1 4:0.22973 5:0.210084 6:-0.79646 7:-0.582433 8:-0.687962 9:-0.583937 10:-0.644245 
-128 1:-1 2:1 3:-1 4:0.121622 5:0.0756303 6:-0.761062 7:-0.567558 8:-0.6577 9:-0.732719 10:-0.564524 
-128 1:1 2:-1 3:-1 4:-0.0135135 5:-0.0420168 6:-0.814159 7:-0.716664 8:-0.825824 9:-0.749835 10:-0.674141 
-128 1:-1 2:1 3:-1 4:0.324324 5:0.310924 6:-0.725664 7:-0.416327 8:-0.542703 9:-0.460171 10:-0.509716 
-128 1:1 2:-1 3:-1 4:0.310811 5:0.344538 6:-0.725664 7:-0.436869 8:-0.544048 9:-0.500987 10:-0.519681 
-128 1:1 2:-1 3:-1 4:0.0810811 5:0.0756303 6:-0.769912 7:-0.63485 8:-0.72226 9:-0.694536 10:-0.664175 
-128 1:-1 2:1 3:-1 4:0.121622 5:0.092437 6:-0.778761 7:-0.612538 8:-0.671822 9:-0.718236 10:-0.656203 
-128 1:1 2:-1 3:-1 4:0.0405405 5:-0.00840336 6:-0.787611 7:-0.636621 8:-0.700067 9:-0.716919 10:-0.691081 
-128 1:1 2:-1 3:-1 4:0.189189 5:0.176471 6:-0.769912 7:-0.489995 8:-0.570948 9:-0.656353 10:-0.584454 
-128 1:-1 2:1 3:-1 4:0.364865 5:0.344538 6:-0.699115 7:-0.358597 8:-0.498319 9:-0.439105 10:-0.434978 
-128 1:-1 2:1 3:-1 4:0.432432 5:0.445378 6:-0.716814 7:-0.135824 8:-0.2885 9:-0.323239 10:-0.444943 
-128 1:-1 2:1 3:-1 4:0.310811 5:0.327731 6:-0.716814 7:-0.27643 8:-0.424344 9:-0.295589 10:-0.405082 
-128 1:-1 2:1 3:-1 4:0.472973 5:0.411765 6:-0.690265 7:-0.281388 8:-0.415602 9:-0.437788 10:-0.355257 
-128 1:-1 2:1 3:-1 4:0.5 5:0.428571 6:-0.716814 7:-0.152116 8:-0.293208 9:-0.119157 10:-0.375187 
-128 1:-1 2:1 3:-1 4:0.175676 5:0.159664 6:-0.752212 7:-0.424473 8:-0.383995 9:-0.483871 10:-0.61435 
-128 1:1 2:-1 3:-1 4:0.148649 5:0.176471 6:-0.725664 7:-0.454578 8:-0.535978 9:-0.597103 10:-0.514699 
-128 1:-1 2:1 3:-1 4:0.162162 5:0.193277 6:-0.734513 7:-0.545245 8:-0.618023 9:-0.619487 10:-0.584454 
-128 1:1 2:-1 3:-1 4:0.310811 5:0.327731 6:-0.716814 7:-0.348327 8:-0.420309 9:-0.532587 10:-0.484803 
-128 1:-1 2:1 3:-1 4:-0.0810811 5:-0.092437 6:-0.814159 7:-0.732247 8:-0.786819 9:-0.794602 10:-0.763827 
-128 1:1 2:-1 3:-1 4:0.0675676 5:0.0252101 6:-0.761062 7:-0.646538 8:-0.777404 9:-0.698486 10:-0.674141 
-128 1:-1 2:1 3:-1 4:0.0675676 5:-0.00840336 6:-0.743363 7:-0.63485 8:-0.749832 9:-0.676103 10:-0.644245 
-128 1:-1 2:1 3:-1 5:0.00840336 6:-0.734513 7:-0.657871 8:-0.757902 9:-0.672153 10:-0.694071 
-128 1:-1 2:-1 3:1 4:-0.0540541 5:0.092437 6:-0.814159 7:-0.770143 8:-0.828514 9:-0.794602 10:-0.803687 
-128 1:-1 2:1 3:-1 4:0.22973 5:0.210084 6:-0.716814 7:-0.446786 8:-0.60659 9:-0.585253 10:-0.514699 
-128 1:1 2:-1 3:-1 4:0.297297 5:0.310924 6:-0.761062 7:-0.409244 8:-0.549428 9:-0.573404 10:-0.454908 
-128 1:-1 2:-1 3:1 4:-0.0135135 5:-0.00840336 6:-0.761062 7:-0.693288 8:-0.757229 9:-0.782752 10:-0.753861 
-128 1:-1 2:-1 3:1 4:-0.256757 5:-0.310924 6:-0.849558 7:-0.878165 8:-0.906523 9:-0.910467 10:-0.883408 
-128 1:-1 2:-1 3:1 4:-0.337838 5:-0.361345 6:-0.858407 7:-0.889145 8:-0.915938 9:-0.915734 10:-0.903338 
-128 1:-1 2:1 3:-1 4:0.405405 5:0.344538 6:-0.725664 7:-0.250221 8:-0.310693 9:-0.431205 10:-0.405082 
-92.794405028694214 1:-1 2:1 3:-1 4:0.513514 5:0.512605 6:-0.699115 7:0.000885426 8:-0.187626 9:-0.219223 10:-0.275536 
-128 1:-1 2:1 3:-1 4:0.391892 5:0.411765 6:-0.716814 7:-0.221179 8:-0.359112 9:-0.328506 10:-0.415047 
-128 1:-1 2:1 3:-1 4:0.256757 5:0.411765 6:-0.725664 7:-0.344077 8:-0.471419 9:-0.490454 10:-0.484803 
-128 1:-1 2:1 3:-1 4:0.337838 5:0.294118 6:-0.778761 7:-0.388702 8:-0.507061 9:-0.54707 10:-0.464873 
-128 1:1 2:-1 3:-1 4:0.22973 5:0.226891 6:-0.707965 7:-0.367806 8:-0.572293 9:-0.371955 10:-0.514699 
-128 1:-1 2:1 3:-1 4:0.0405405 5:0.092437 6:-0.769912 7:-0.548787 8:-0.597848 9:-0.599737 10:-0.684106 
-128 1:1 2:-1 3:-1 4:0.202703 5:0.327731 6:-0.734513 7:-0.367452 8:-0.515131 9:-0.511521 10:-0.534629 
-128 1:-1 2:1 3:-1 4:0.0135135 5:0.0252101 6:-0.778761 7:-0.6476 8:-0.72764 9:-0.737986 10:-0.664175 
-128 1:1 2:-1 3:-1 4:0.108108 5:0.142857 6:-0.752212 7:-0.555516 8:-0.694015 9:-0.666886 10:-0.554559 
-128 1:1 2:-1 3:-1 4:0.22973 5:0.277311 6:-0.725664 7:-0.506287 8:-0.613988 9:-0.581303 10:-0.59442 
-128 1:-1 2:1 3:-1 4:0.135135 5:0.159664 6:-0.725664 7:-0.544891 8:-0.675857 9:-0.652403 10:-0.59442 
-128 1:-1 2:1 3:-1 4:0.243243 5:0.277311 6:-0.716814 7:-0.427307 8:-0.577001 9:-0.528637 10:-0.524664 
-128 1:1 2:-1 3:-1 4:0.121622 5:0.142857 6:-0.752212 7:-0.612538 8:-0.70343 9:-0.665569 10:-0.704036 
-128 1:-1 2:1 3:-1 4:0.0675676 5:0.0252101 6:-0.769912 7:-0.66708 8:-0.756557 9:-0.701119 10:-0.704036 
-128 1:1 2:-1 3:-1 4:0.283784 5:0.193277 6:-0.778761 7:-0.462724 8:-0.664425 9:-0.57077 10:-0.61435 
-128 1:1 2:-1 3:-1 4:0.337838 5:0.277311 6:-0.743363 7:-0.360014 8:-0.473436 9:-0.381172 10:-0.454908 
-128 1:1 2:-1 3:-1 4:0.310811 5:0.294118 6:-0.752212 7:-0.313618 8:-0.405514 9:-0.462804 10:-0.474838 
-128 1:1 2:-1 3:-1 4:0.0135135 5:-0.00840336 6:-0.823009 7:-0.741101 8:-0.804304 9:-0.734036 10:-0.763827 
-128 1:1 2:-1 3:-1 4:-0.162162 5:-0.142857 6:-0.823009 7:-0.799894 8:-0.858104 9:-0.803818 10:-0.803687 
-128 1:1 2:-1 3:-1 4:0.175676 5:0.159664 6:-0.769912 7:-0.545599 8:-0.638198 9:-0.56287 10:-0.59442 
-128 1:1 2:-1 3:-1 4:0.148649 5:0.092437 6:-0.725664 7:-0.5796 8:-0.71419 9:-0.577354 10:-0.604385 
-128 1:1 2:-1 3:-1 4:0.472973 5:0.411765 6:-0.672566 7:-0.0628652 8:-0.188299 9:-0.14549 10:-0.345291 
-128 1:-1 2:1 3:-1 4:0.324324 5:0.327731 6:-0.654867 7:-0.290597 8:-0.455279 9:-0.341672 10:-0.434978 
-128 1:1 2:-1 3:-1 4:0.351351 5:0.344538 6:-0.743363 7:-0.1762 8:-0.219906 9:-0.402238 10:-0.405082 
-128 1:1 2:-1 3:-1 4:0.472973 5:0.378151 6:-0.672566 7:-0.0989906 8:-0.222596 9:-0.194207 10:-0.365222 
-128 1:-1 2:1 3:-1 4:0.162162 5:0.0756303 6:-0.681416 7:-0.599079 8:-0.688635 9:-0.607637 10:-0.664175 
-128 1:1 2:-1 3:-1 4:0.121622 5:0.12605 6:-0.752212 7:-0.50062 8:-0.62542 9:-0.425938 10:-0.644245 
-128 1:1 2:-1 3:-1 4:0.445946 5:0.428571 6:-0.734513 7:-0.151408 8:-0.248151 9:-0.354839 10:-0.444943 
-128 1:-1 2:1 3:-1 4:0.378378 5:0.327731 6:-0.699115 7:-0.386223 8:-0.554136 9:-0.57077 10:-0.464873 
-128 1:1 2:-1 3:-1 4:0.337838 5:0.361345 6:-0.752212 7:-0.326014 8:-0.400807 9:-0.457538 10:-0.514699 
-128 1:-1 2:1 3:-1 4:0.418919 5:0.428571 6:-0.734513 7:-0.272534 8:-0.451917 9:-0.289006 10:-0.415047 
-128 1:1 2:-1 3:-1 4:0.364865 5:0.378151 6:-0.743363 7:-0.373118 8:-0.408877 9:-0.565504 10:-0.474838 
-128 1:-1 2:1 3:-1 4:0.364865 5:0.344538 6:-0.787611 7:-0.241013 8:-0.357095 9:-0.281106 10:-0.474838 
-128 1:1 2:-1 3:-1 4:0.5 5:0.462185 6:-0.663717 7:-0.167345 8:-0.337592 9:-0.115207 10:-0.434978 
-128 1:-1 2:1 3:-1 4:0.378378 5:0.327731 6:-0.716814 7:-0.238534 8:-0.329523 9:-0.24424 10:-0.504733 
-128 1:1 2:-1 3:-1 4:0.243243 5:0.226891 6:-0.743363 7:-0.441119 8:-0.557498 9:-0.503621 10:-0.504733 
-128 1:1 2:-1 3:-1 4:0.108108 5:0.159664 6:-0.761062 7:-0.531787 8:-0.580363 9:-0.640553 10:-0.604385 
-128 1:1 2:-1 3:-1 4:0.0675676 5:0.0756303 6:-0.787611 7:-0.607225 8:-0.697377 9:-0.680053 10:-0.61435 
-128 1:1 2:-1 3:-1 4:0.27027 5:0.243697 6:-0.761062 7:-0.403223 8:-0.499664 9:-0.448321 10:-0.534629 
-128 1:1 2:-1 3:-1 4:0.256757 5:0.226891 6:-0.725664 7:-0.478307 8:-0.528581 9:-0.601053 10:-0.574489 
-128 1:1 2:-1 3:-1 4:0.0405405 5:0.092437 6:-0.761062 7:-0.659996 8:-0.722932 9:-0.678736 10:-0.714001 
-128 1:1 2:-1 3:-1 4:0.121622 5:0.226891 6:-0.778761 7:-0.570037 8:-0.679892 9:-0.623436 10:-0.564524 
-128 1:-1 2:-1 3:1 4:-0.0810811 5:-0.092437 6:-0.823009 7:-0.773685 8:-0.794889 9:-0.844635 10:-0.793722 
-128 1:1 2:-1 3:-1 4:0.0810811 5:0.0756303 6:-0.778761 7:-0.581371 8:-0.628783 9:-0.698486 10:-0.644245 
-128 1:-1 2:1 3:-1 4:0.0675676 5:0.0756303 6:-0.778761 7:-0.603683 8:-0.662408 9:-0.640553 10:-0.644245 
-128 1:-1 2:-1 3:1 4:-0.148649 5:-0.142857 6:-0.823009 7:-0.787498 8:-0.845326 9:-0.832785 10:-0.773792 
-128 1:-1 2:1 3:-1 4:0.148649 5:0.142857 6:-0.752212 7:-0.494599 8:-0.575656 9:-0.537854 10:-0.524664 
-128 1:1 2:-1 3:-1 4:0.378378 5:0.344538 6:-0.734513 7:-0.302284 8:-0.415602 9:-0.454905 10:-0.385152 
-128 1:-1 2:1 3:-1 4:0.189189 5:0.210084 6:-0.752212 7:-0.510182 8:-0.582381 9:-0.601053 10:-0.604385 
-128 1:-1 2:1 3:-1 4:0.216216 5:0.294118 6:-0.734513 7:-0.40464 8:-0.505716 9:-0.478604 10:-0.524664 
-128 1:1 2:-1 3:-1 4:0.391892 5:0.445378 6:-0.787611 7:-0.356118 8:-0.476799 9:-0.522054 10:-0.425012 
-128 1:1 2:-1 3:-1 4:0.297297 5:0.327731 6:-0.743363 7:-0.353285 8:-0.463349 9:-0.353522 10:-0.434978 
-128 1:1 2:-1 3:-1 4:0.378378 5:0.411765 6:-0.787611 7:-0.332035 8:-0.449899 9:-0.444371 10:-0.444943 
-128 1:-1 2:1 3:-1 4:0.364865 5:0.361345 6:-0.787611 7:-0.29768 8:-0.379287 9:-0.373272 10:-0.444943 
-128 1:1 2:-1 3:-1 4:0.27027 5:0.294118 6:-0.787611 7:-0.394723 8:-0.533961 9:-0.549704 10:-0.524664 
-128 1:-1 2:-1 3:1 4:0.121622 5:0.092437 6:-0.787611 7:-0.626704 8:-0.710155 9:-0.635286 10:-0.694071 
-128 1:-1 2:1 3:-1 4:0.121622 5:0.12605 6:-0.761062 7:-0.591642 8:-0.669805 9:-0.677419 10:-0.604385 
-128 1:-1 2:1 3:-1 4:0.337838 5:0.327731 6:-0.690265 7:-0.324597 8:-0.490249 9:-0.56287 10:-0.415047 
-128 1:-1 2:-1 3:1 4:-0.0135135 5:-0.0252101 6:-0.823009 7:-0.742164 8:-0.837256 9:-0.763002 10:-0.763827 
-128 1:1 2:-1 3:-1 4:0.148649 5:0.193277 6:-0.734513 7:-0.532495 8:-0.62273 9:-0.640553 10:-0.564524 
-128 1:-1 2:-1 3:1 4:-0.162162 5:-0.159664 6:-0.831858 7:-0.822915 8:-0.878278 9:-0.856485 10:-0.823617 
-128 1:-1 2:-1 3:1 4:-0.22973 5:-0.260504 6:-0.80531 7:-0.836019 8:-0.873571 9:-0.863068 10:-0.833582 
-128 1:-1 2:-1 3:1 4:-0.135135 5:-0.193277 6:-0.823009 7:-0.809102 8:-0.821116 9:-0.915734 10:-0.833582 
-128 1:-1 2:1 3:-1 4:-0.0945946 5:-0.092437 6:-0.814159 7:-0.743935 8:-0.787492 9:-0.798552 10:-0.763827 
-128 1:-1 2:1 3:-1 4:0.324324 5:0.344538 6:-0.734513 7:-0.420223 8:-0.510424 9:-0.58262 10:-0.484803 
-128 1:-1 2:1 3:-1 4:0.324324 5:0.462185 6:-0.725664 7:-0.346556 8:-0.456624 9:-0.423305 10:-0.494768 
-128 1:1 2:-1 3:-1 4:0.351351 5:0.394958 6:-0.752212 7:-0.408181 8:-0.532616 9:-0.544437 10:-0.524664 
-128 1:-1 2:-1 3:1 4:-0.0810811 5:-0.142857 6:-0.80531 7:-0.791394 8:-0.835911 9:-0.851218 10:-0.804684 
-128 1:-1 2:1 3:-1 4:0.216216 5:0.193277 6:-0.761062 7:-0.499557 8:-0.607263 9:-0.599737 10:-0.534629 
-128 1:1 2:-1 3:-1 4:-0.175676 5:-0.226891 6:-0.823009 7:-0.812644 8:-0.846671 9:-0.840685 10:-0.853513 
-128 1:-1 2:1 3:-1 4:0.378378 5:0.378151 6:-0.699115 7:-0.299097 8:-0.481506 9:-0.411455 10:-0.474838 
-128 1:-1 2:1 3:-1 4:0.189189 5:0.176471 6:-0.787611 7:-0.543829 8:-0.61197 9:-0.631336 10:-0.650224 
-128 1:-1 2:1 3:-1 4:0.202703 5:0.176471 6:-0.787611 7:-0.557287 8:-0.645595 9:-0.628703 10:-0.642252 
-128 1:1 2:-1 3:-1 4:0.337838 5:0.378151 6:-0.778761 7:-0.400035 8:-0.492266 9:-0.536537 10:-0.524664 
-128 1:-1 2:1 3:-1 4:0.364865 5:0.361345 6:-0.734513 7:-0.296264 8:-0.424344 9:-0.443055 10:-0.484803 
-128 1:1 2:-1 3:-1 4:0.283784 5:0.327731 6:-0.769912 7:-0.349743 8:-0.492939 9:-0.373272 10:-0.425012 
-128 1:1 2:-1 3:-1 4:0.256757 5:0.226891 6:-0.761062 7:-0.429432 8:-0.532616 9:-0.528637 10:-0.534629 
-128 1:-1 2:1 3:-1 4:0.337838 5:0.344538 6:-0.707965 7:-0.25093 8:-0.409549 9:-0.423305 10:-0.434978 
-128 1:1 2:-1 3:-1 4:0.391892 5:0.344538 6:-0.743363 7:-0.241367 8:-0.362475 9:-0.500987 10:-0.434978 
-128 1:-1 2:1 3:-1 4:0.432432 5:0.445378 6:-0.707965 7:-0.285638 8:-0.416274 9:-0.450955 10:-0.405082 
-128 1:-1 2:1 3:-1 4:0.364865 5:0.294118 6:-0.681416 7:-0.396494 8:-0.508406 9:-0.57077 10:-0.514699 
-128 1:1 2:-1 3:-1 4:0.418919 5:0.394958 6:-0.690265 7:-0.2187 8:-0.347007 9:-0.350889 10:-0.375187 
-128 1:1 2:-1 3:-1 4:0.310811 5:0.277311 6:-0.681416 7:-0.371702 8:-0.517149 9:-0.464121 10:-0.504733 
-128 1:-1 2:-1 3:1 4:0.310811 5:0.310924 6:-0.725664 7:-0.382681 8:-0.597176 9:-0.450955 10:-0.454908 
-128 1:-1 2:1 3:-1 4:0.027027 5:-0.00840336 6:-0.752212 7:-0.634142 8:-0.704102 9:-0.668203 10:-0.733931 
-128 1:-1 2:1 3:-1 4:0.121622 5:0.092437 6:-0.743363 7:-0.525058 8:-0.666443 9:-0.524687 10:-0.584454 
-128 1:-1 2:1 3:-1 4:0.337838 5:0.310924 6:-0.725664 7:-0.482203 8:-0.622058 9:-0.58262 10:-0.534629 
-128 1:-1 2:1 3:-1 4:0.337838 5:0.327731 6:-0.716814 7:-0.313264 8:-0.468056 9:-0.329822 10:-0.484803 
-128 1:-1 2:-1 3:1 4:0.22973 5:0.226891 6:-0.672566 7:-0.468744 8:-0.599193 9:-0.59052 10:-0.59442 
-128 1:-1 2:1 3:-1 4:0.0405405 5:0.00840336 6:-0.769912 7:-0.676997 8:-0.743107 9:-0.723502 10:-0.743896 
-128 1:-1 2:-1 3:1 4:0.0675676 5:0.0588235 6:-0.787611 7:-0.668142 8:-0.753194 9:-0.723502 10:-0.694071 
-128 1:-1 2:-1 3:1 4:0.0675676 5:0.0588235 6:-0.752212 7:-0.648309 8:-0.71957 9:-0.678736 10:-0.714001 
-128 1:-1 2:-1 3:1 4:0.0540541 5:0.092437 6:-0.769912 7:-0.67983 8:-0.746469 9:-0.790652 10:-0.694071 
-128 1:-1 2:-1 3:1 4:0.202703 5:0.176471 6:-0.752212 7:-0.59235 8:-0.732347 9:-0.619487 10:-0.646238 
-128 1:-1 2:1 3:-1 4:-0.189189 5:-0.210084 6:-0.79646 7:-0.809811 8:-0.876261 9:-0.827518 10:-0.826607 
-128 1:-1 2:1 3:-1 4:0.148649 5:0.0756303 6:-0.752212 7:-0.573579 8:-0.675857 9:-0.628703 10:-0.646238 
-128 1:-1 2:1 3:-1 4:-0.0135135 5:0.00840336 6:-0.79646 7:-0.707455 8:-0.788164 9:-0.757735 10:-0.741903 
-128 1:1 2:-1 3:-1 4:-0.0675676 5:-0.092437 6:-0.79646 7:-0.79706 8:-0.866846 9:-0.851218 10:-0.776781 
-128 1:-1 2:1 3:-1 4:-0.175676 5:-0.210084 6:-0.814159 7:-0.819373 8:-0.868191 9:-0.867018 10:-0.833582 
-128 1:1 2:-1 3:-1 4:-0.337838 5:-0.361345 6:-0.867257 7:-0.89127 8:-0.922663 9:-0.901251 10:-0.905331 
-128 1:-1 2:1 3:-1 4:0.324324 5:0.327731 6:-0.716814 7:-0.438286 8:-0.516476 9:-0.591837 10:-0.544594 
-128 1:-1 2:-1 3:1 4:0.297297 5:0.243697 6:-0.681416 7:-0.381619 8:-0.504371 9:-0.473338 10:-0.494768 
-128 1:-1 2:-1 3:1 4:0.459459 5:0.462185 6:-0.725664 7:-0.301222 8:-0.443847 9:-0.487821 10:-0.315396 
-128 1:-1 2:-1 3:1 4:0.310811 5:0.294118 6:-0.707965 7:-0.434744 8:-0.550773 9:-0.544437 10:-0.504733 
-128 1:-1 2:-1 3:1 4:0.0945946 5:0.0588235 6:-0.787611 7:-0.63733 8:-0.72226 9:-0.656353 10:-0.694071 
-128 1:-1 2:-1 3:1 4:0.148649 5:0.109244 6:-0.734513 7:-0.557641 8:-0.650975 9:-0.56287 10:-0.684106 
-128 1:-1 2:-1 3:1 4:0.216216 5:0.176471 6:-0.734513 7:-0.438286 8:-0.587761 9:-0.461488 10:-0.494768 
-128 1:-1 2:-1 3:1 4:0.202703 5:0.159664 6:-0.743363 7:-0.533912 8:-0.642233 9:-0.723502 10:-0.564524 
-128 1:-1 2:-1 3:1 4:0.189189 5:0.159664 6:-0.787611 7:-0.53462 8:-0.637525 9:-0.529954 10:-0.664175 
-128 1:-1 2:1 3:-1 4:0.0810811 5:-0.00840336 6:-0.79646 7:-0.681247 8:-0.770679 9:-0.759052 10:-0.694071 
-128 1:-1 2:1 3:-1 4:0.27027 5:0.210084 6:-0.734513 7:-0.481849 8:-0.62542 9:-0.572087 10:-0.567514 
-128 1:-1 2:1 3:-1 4:0.0675676 5:0.00840336 6:-0.769912 7:-0.614308 8:-0.731675 9:-0.669519 10:-0.63428 
-128 1:1 2:-1 3:-1 4:-0.256757 5:-0.327731 6:-0.884956 7:-0.874624 8:-0.906523 9:-0.899934 10:-0.883408 
-128 1:-1 2:-1 3:1 4:0.108108 5:0.00840336 6:-0.769912 7:-0.589871 8:-0.671822 9:-0.65372 10:-0.668161 
-128 1:-1 2:-1 3:1 4:-0.027027 5:-0.0756303 6:-0.778761 7:-0.71383 8:-0.774714 9:-0.723502 10:-0.811659 
-128 1:-1 2:1 3:-1 4:-0.0945946 5:-0.109244 6:-0.79646 7:-0.727289 8:-0.779422 9:-0.736669 10:-0.806677 
-128 1:-1 2:-1 3:1 4:0.0135135 5:-0.00840336 6:-0.752212 7:-0.665663 8:-0.718897 9:-0.714286 10:-0.748879 
-128 1:-1 2:-1 3:1 4:0.0135135 5:-0.0252101 6:-0.761062 7:-0.687622 8:-0.735709 9:-0.770902 10:-0.768809 
-128 1:-1 2:1 3:-1 4:0.337838 5:0.294118 6:-0.752212 7:-0.326014 8:-0.492266 9:-0.472021 10:-0.395117 
